{"learner":{"attributes":{},"feature_names":[],"feature_types":[],"gradient_booster":{"model":{"gbtree_model_param":{"num_parallel_tree":"1","num_trees":"200"},"iteration_indptr":[0,2,4,6,8,10,12,14,16,18,20,22,24,26,28,30,32,34,36,38,40,42,44,46,48,50,52,54,56,58,60,62,64,66,68,70,72,74,76,78,80,82,84,86,88,90,92,94,96,98,100,102,104,106,108,110,112,114,116,118,120,122,124,126,128,130,132,134,136,138,140,142,144,146,148,150,152,154,156,158,160,162,164,166,168,170,172,174,176,178,180,182,184,186,188,190,192,194,196,198,200],"tree_info":[0,1,0,1,0,1,0,1,0,1,0,1,0,1,0,1,0,1,0,1,0,1,0,1,0,1,0,1,0,1,0,1,0,1,0,1,0,1,0,1,0,1,0,1,0,1,0,1,0,1,0,1,0,1,0,1,0,1,0,1,0,1,0,1,0,1,0,1,0,1,0,1,0,1,0,1,0,1,0,1,0,1,0,1,0,1,0,1,0,1,0,1,0,1,0,1,0,1,0,1,0,1,0,1,0,1,0,1,0,1,0,1,0,1,0,1,0,1,0,1,0,1,0,1,0,1,0,1,0,1,0,1,0,1,0,1,0,1,0,1,0,1,0,1,0,1,0,1,0,1,0,1,0,1,0,1,0,1,0,1,0,1,0,1,0,1,0,1,0,1,0,1,0,1,0,1,0,1,0,1,0,1,0,1,0,1,0,1,0,1,0,1,0,1,0,1,0,1,0,1],"trees":[{"base_weights":[-7.361357E-1,-7.9867154E-1,-4.8534667E-1,-2.3972115E-1,-7.134457E-1,-7.9758525E-1,8.819286E-1,-2.3802166E-1,-4.4728434E-1,-2.397329E-1,-4.3887147E-1,1.0656652E0,2.130934E-2,6.271777E-1,-2.22668E-1,1.1764707E-1,-1.5558061E-1,1.2639616E0,5.5954087E-1,3.5306334E-1,-2.5502485E-1,2.8037384E-1,1.1320756E-1,-1.1299435E-1,1.2711834E0,1.020348E0,-1.5447524E-1,7.340281E-1,-1.5503876E-1,-6.26151E-1,7.2376356E-2,6.896552E-2,-9.836066E-2,5.4054055E-2,3.8351756E-1,3.345885E-1,1.6976556E-1,2.2050291E-1,-8.118459E-2,-1.2244899E-1,2.4091779E-1,-2.0064725E-1,1.3810742E-1,-2.0368575E-1,8.450705E-2,4.982902E-2,-1.0169492E-1],"categories":[],"categories_nodes":[],"categories_segments":[],"categories_sizes":[],"default_left":[0,0,0,0,0,0,0,0,0,0,0,0,0,0,0,0,0,0,0,0,0,0,0,0,0,0,0,0,0,0,0,0,0,0,0,0,0,0,0,0,0,0,0,0,0,0,0],"id":0,"left_children":[1,3,5,-1,7,9,11,-1,13,-1,15,17,19,21,-1,-1,-1,23,25,27,29,-1,-1,31,33,35,37,39,41,43,45,-1,-1,-1,-1,-1,-1,-1,-1,-1,-1,-1,-1,-1,-1,-1,-1],"loss_changes":[6.309297E2,5.234375E-1,3.4317354E3,0E0,3.0382996E0,3.2270508E0,2.3631335E2,0E0,1.2864389E1,0E0,2.1849122E0,1.22901855E2,2.4289368E1,3.3608246E-1,0E0,0E0,0E0,8.935547E0,1.1482237E2,2.3414669E1,1.7614494E1,0E0,0E0,4.8289278E-1,6.687134E0,8.513947E0,1.4409773E1,5.7657433E0,1.6877808E1,3.4448643E0,3.052576E0,0E0,0E0,0E0,0E0,0E0,0E0,0E0,0E0,0E0,0E0,0E0,0E0,0E0,0E0,0E0,0E0],"parents":[2147483647,0,0,1,1,2,2,4,4,5,5,6,6,8,8,10,10,11,11,12,12,13,13,17,17,18,18,19,19,20,20,23,23,24,24,25,25,26,26,27,27,28,28,29,29,30,30],"right_children":[2,4,6,-1,8,10,12,-1,14,-1,16,18,20,22,-1,-1,-1,24,26,28,30,-1,-1,32,34,36,38,40,42,44,46,-1,-1,-1,-1,-1,-1,-1,-1,-1,-1,-1,-1,-1,-1,-1,-1],"split_conditions":[4.9874234E-1,4.902669E-1,3.957306E-1,-2.3972115E-1,6.056243E-1,3.732407E-1,5.981794E-1,-2.3802166E-1,6.198593E-1,-2.397329E-1,6.7272013E-1,6.267335E-1,5.0997895E-1,6.1129874E-1,-2.22668E-1,1.1764707E-1,-1.5558061E-1,4.6466118E-1,4.5175403E-1,6.2509066E-1,5.1989836E-1,2.8037384E-1,1.1320756E-1,5.929628E-1,5.1360923E-1,6.840018E-1,6.3755095E-1,6.1129874E-1,5.047319E-1,6.2509066E-1,5.293791E-1,6.896552E-2,-9.836066E-2,5.4054055E-2,3.8351756E-1,3.345885E-1,1.6976556E-1,2.2050291E-1,-8.118459E-2,-1.2244899E-1,2.4091779E-1,-2.0064725E-1,1.3810742E-1,-2.0368575E-1,8.450705E-2,4.982902E-2,-1.0169492E-1],"split_indices":[0,0,1,0,1,1,1,0,1,0,0,0,0,1,0,0,0,1,1,1,0,0,0,0,0,0,0,1,0,1,0,0,0,0,0,0,0,0,0,0,0,0,0,0,0,0,0],"split_type":[0,0,0,0,0,0,0,0,0,0,0,0,0,0,0,0,0,0,0,0,0,0,0,0,0,0,0,0,0,0,0,0,0,0,0,0,0,0,0,0,0,0,0,0,0,0,0],"sum_hessian":[4.0253125E4,3.2217344E4,8.0357812E3,3.2058906E4,1.584375E2,6.5421875E3,1.4935938E3,1.203125E2,3.8125E1,6.5132812E3,2.890625E1,1.230625E3,2.6296875E2,7.96875E0,3.015625E1,2.1875E0,2.671875E1,8.83125E2,3.475E2,1.19375E2,1.4359375E2,2.34375E0,5.625E0,4.53125E0,8.7859375E2,2.109375E2,1.365625E2,6.796875E1,5.140625E1,6.6875E1,7.671875E1,1.71875E0,2.8125E0,5.9375E0,8.7265625E2,1.7328125E2,3.765625E1,1.515625E1,1.2140625E2,3.59375E0,6.4375E1,2.796875E1,2.34375E1,6.34375E1,3.4375E0,6.296875E1,1.375E1],"tree_param":{"num_deleted":"0","num_feature":"2","num_nodes":"47","size_leaf_vector":"1"}},{"base_weights":[1.1648968E0,1.3296473E0,6.408683E-1,3.99226E-1,1.1090798E0,1.3266392E0,-6.120406E-1,3.9453462E-1,5.761317E-1,3.9925858E-1,5.62249E-1,-6.9522613E-1,-2.108469E-2,-4.774536E-1,3.5406697E-1,-3.2786885E-1,2.1004568E-1,-7.7449536E-1,-4.3721974E-1,-3.0008826E-1,2.9229626E-1,-1.9108282E-1,-9.5238104E-2,-0E0,-1.4634147E-1,1.19760476E-1,-7.7720094E-1,-6.756493E-1,1.6740522E-1,-5.3695726E-1,1.6806723E-1,9.1152817E-1,-6.9848664E-2,-6.185567E-2,1.1764707E-1,-0E0,-2.3376964E-1,-2.1480374E-1,-1.3232516E-1,-1.612447E-1,9.3888395E-2,1.5384617E-1,-1.7189632E-1,3.0145866E-1,-1.12266116E-1,3.0837005E-1,-7.4074075E-2,-4.600812E-2,1.2244899E-1],"categories":[],"categories_nodes":[],"categories_segments":[],"categories_sizes":[],"default_left":[0,0,0,0,0,0,0,0,0,0,0,0,0,0,0,0,0,0,0,0,0,0,0,0,0,0,0,0,0,0,0,0,0,0,0,0,0,0,0,0,0,0,0,0,0,0,0,0,0],"id":1,"left_children":[1,3,5,-1,7,9,11,-1,13,-1,15,17,19,21,-1,23,-1,25,27,29,31,-1,-1,-1,-1,33,35,37,39,41,43,45,47,-1,-1,-1,-1,-1,-1,-1,-1,-1,-1,-1,-1,-1,-1,-1,-1],"loss_changes":[2.1953008E3,3.2421875E0,5.2303574E3,0E0,1.0504326E1,1.1949219E1,1.0585687E2,0E0,1.9896034E1,0E0,3.0950055E0,3.8272217E1,2.3413574E1,9.842038E-2,0E0,1.9992006E-1,0E0,3.5840454E0,6.440867E1,1.5795257E1,2.8354424E1,0E0,0E0,0E0,0E0,5.4421175E-1,2.2710571E0,2.7144623E0,1.3192086E1,3.8599339E0,2.2313637E1,6.5393257E0,3.2773716E0,0E0,0E0,0E0,0E0,0E0,0E0,0E0,0E0,0E0,0E0,0E0,0E0,0E0,0E0,0E0,0E0],"parents":[2147483647,0,0,1,1,2,2,4,4,5,5,6,6,8,8,10,10,11,11,12,12,13,13,15,15,17,17,18,18,19,19,20,20,25,25,26,26,27,27,28,28,29,29,30,30,31,31,32,32],"right_children":[2,4,6,-1,8,10,12,-1,14,-1,16,18,20,22,-1,24,-1,26,28,30,32,-1,-1,-1,-1,34,36,38,40,42,44,46,48,-1,-1,-1,-1,-1,-1,-1,-1,-1,-1,-1,-1,-1,-1,-1,-1],"split_conditions":[4.9874234E-1,4.902669E-1,3.957306E-1,3.99226E-1,6.056243E-1,3.732407E-1,5.981794E-1,3.9453462E-1,6.198593E-1,3.9925858E-1,6.7272013E-1,6.267335E-1,5.0997895E-1,6.1129874E-1,3.5406697E-1,6.0328186E-1,2.1004568E-1,4.6466118E-1,4.5175403E-1,6.2509066E-1,5.1989836E-1,-1.9108282E-1,-9.5238104E-2,-0E0,-1.4634147E-1,5.929628E-1,5.0997895E-1,6.840018E-1,6.3755095E-1,6.1129874E-1,5.047319E-1,6.2509066E-1,5.293791E-1,-6.185567E-2,1.1764707E-1,-0E0,-2.3376964E-1,-2.1480374E-1,-1.3232516E-1,-1.612447E-1,9.3888395E-2,1.5384617E-1,-1.7189632E-1,3.0145866E-1,-1.12266116E-1,3.0837005E-1,-7.4074075E-2,-4.600812E-2,1.2244899E-1],"split_indices":[0,0,1,0,1,1,1,0,1,0,0,0,0,1,0,0,0,1,1,1,0,0,0,0,0,0,0,0,0,1,0,1,0,0,0,0,0,0,0,0,0,0,0,0,0,0,0,0,0],"split_type":[0,0,0,0,0,0,0,0,0,0,0,0,0,0,0,0,0,0,0,0,0,0,0,0,0,0,0,0,0,0,0,0,0,0,0,0,0,0,0,0,0,0,0,0,0,0,0,0,0],"sum_hessian":[2.5436875E4,1.9351406E4,6.0854688E3,1.9249844E4,1.015625E2,3.9328125E3,2.1526562E3,7.21875E1,2.9375E1,3.9104688E3,2.234375E1,1.886875E3,2.6578125E2,1.078125E1,1.859375E1,2.8125E0,1.953125E1,1.441875E3,4.45E2,1.40625E2,1.2515625E2,3.90625E0,6.875E0,1.25E0,1.5625E0,4.21875E0,1.4376562E3,3.190625E2,1.259375E2,9.328125E1,4.734375E1,4.5625E1,7.953125E1,2.03125E0,2.1875E0,3.75E0,1.4339062E3,2.7046875E2,4.859375E1,2.109375E1,1.0484375E2,2.65625E0,9.0625E1,1.828125E1,2.90625E1,4.15625E1,4.0625E0,6.828125E1,1.125E1],"tree_param":{"num_deleted":"0","num_feature":"2","num_nodes":"49","size_leaf_vector":"1"}},{"base_weights":[-6.091185E-1,-6.9900215E-1,-2.895474E-1,-2.09865E-1,-5.874453E-1,-6.97635E-1,7.720875E-1,-2.0799167E-1,-2.8719765E-1,-6.9961554E-1,-3.2100323E-1,8.9423615E-1,7.873135E-2,5.2053714E-1,-1.9011948E-1,-2.100846E-1,-1.6434836E-1,9.887872E-2,-1.2143043E-1,1.0352093E0,4.9789834E-1,3.2516935E-1,-1.6343245E-1,2.5302628E-1,8.5041136E-2,-7.151853E-2,1.0397749E0,7.956265E-1,-8.99429E-2,5.5275357E-1,-6.15519E-2,7.863624E-2,-4.8012638E-1,5.648608E-2,-7.8647226E-2,3.42164E-2,3.1355035E-1,2.6210433E-1,1.2174276E-1,1.6511878E-1,-5.9025582E-2,-9.796873E-2,1.7755415E-1,-1.6559358E-1,9.883749E-2,1.6068907E-2,2.4806954E-1,-1.6509609E-1,9.512281E-2],"categories":[],"categories_nodes":[],"categories_segments":[],"categories_sizes":[],"default_left":[0,0,0,0,0,0,0,0,0,0,0,0,0,0,0,0,0,0,0,0,0,0,0,0,0,0,0,0,0,0,0,0,0,0,0,0,0,0,0,0,0,0,0,0,0,0,0,0,0],"id":2,"left_children":[1,3,5,-1,7,9,11,-1,13,15,17,19,21,23,-1,-1,-1,-1,-1,25,27,29,31,-1,-1,33,35,37,39,41,43,45,47,-1,-1,-1,-1,-1,-1,-1,-1,-1,-1,-1,-1,-1,-1,-1,-1],"loss_changes":[7.9890234E2,9.160156E-1,2.647088E3,0E0,3.371605E0,3.0671387E0,1.4362268E2,0E0,9.004633E0,6.0546875E-2,1.4921818E0,8.007703E1,1.5284544E1,5.151341E-1,0E0,0E0,0E0,0E0,0E0,5.4456787E0,6.6643E1,1.11965885E1,9.957336E0,0E0,0E0,3.1201443E-1,5.166504E0,7.33107E0,8.916012E0,2.941372E0,9.364797E0,1.3477437E0,3.3192205E0,0E0,0E0,0E0,0E0,0E0,0E0,0E0,0E0,0E0,0E0,0E0,0E0,0E0,0E0,0E0,0E0],"parents":[2147483647,0,0,1,1,2,2,4,4,5,5,6,6,8,8,9,9,10,10,11,11,12,12,13,13,19,19,20,20,21,21,22,22,25,25,26,26,27,27,28,28,29,29,30,30,31,31,32,32],"right_children":[2,4,6,-1,8,10,12,-1,14,16,18,20,22,24,-1,-1,-1,-1,-1,26,28,30,32,-1,-1,34,36,38,40,42,44,46,48,-1,-1,-1,-1,-1,-1,-1,-1,-1,-1,-1,-1,-1,-1,-1,-1],"split_conditions":[4.9874234E-1,4.902669E-1,3.957306E-1,-2.09865E-1,6.056243E-1,3.732407E-1,5.981794E-1,-2.0799167E-1,6.198593E-1,3.444423E-1,6.7272013E-1,6.267335E-1,5.0997895E-1,6.1129874E-1,-1.9011948E-1,-2.100846E-1,-1.6434836E-1,9.887872E-2,-1.2143043E-1,4.6466118E-1,4.5175403E-1,6.2509066E-1,6.1129874E-1,2.5302628E-1,8.5041136E-2,5.929628E-1,5.1360923E-1,6.840018E-1,6.3755095E-1,6.1129874E-1,5.047319E-1,5.401165E-1,6.2509066E-1,5.648608E-2,-7.8647226E-2,3.42164E-2,3.1355035E-1,2.6210433E-1,1.2174276E-1,1.6511878E-1,-5.9025582E-2,-9.796873E-2,1.7755415E-1,-1.6559358E-1,9.883749E-2,1.6068907E-2,2.4806954E-1,-1.6509609E-1,9.512281E-2],"split_indices":[0,0,1,0,1,1,1,0,1,1,0,0,0,1,0,0,0,0,0,1,1,1,1,0,0,0,0,0,0,1,0,0,1,0,0,0,0,0,0,0,0,0,0,0,0,0,0,0,0],"split_type":[0,0,0,0,0,0,0,0,0,0,0,0,0,0,0,0,0,0,0,0,0,0,0,0,0,0,0,0,0,0,0,0,0,0,0,0,0,0,0,0,0,0,0,0,0,0,0,0,0],"sum_hessian":[2.7818883E4,2.1711145E4,6.107737E3,2.1599803E4,1.11342285E2,4.412092E3,1.6956449E3,8.135079E1,2.9991497E1,4.388159E3,2.393282E1,1.44142E3,2.542248E2,8.853283E0,2.1138214E1,4.365379E3,2.278002E1,2.3951313E0,2.1537687E1,1.0620486E3,3.7937143E2,1.2583055E2,1.2839424E2,2.6653502E0,6.1879325E0,4.3030243E0,1.0577456E3,2.5159222E2,1.277792E2,7.894333E1,4.6887222E1,7.3196976E1,5.5197266E1,1.8263648E0,2.4766595E0,6.25466E0,1.051491E3,2.0858519E2,4.3007042E1,1.7673058E1,1.1010614E2,3.0473397E0,7.589599E1,2.0616806E1,2.6270418E1,7.186061E1,1.336365E0,5.101506E1,4.1822047E0],"tree_param":{"num_deleted":"0","num_feature":"2","num_nodes":"49","size_leaf_vector":"1"}},{"base_weights":[1.0183792E0,1.1042199E0,7.028437E-1,3.3159482E-1,9.934066E-1,1.1016877E0,-4.7213885E-1,3.3087692E-1,6.5411586E-1,3.3205158E-1,6.281064E-1,-5.7168543E-1,6.3718855E-2,-2.591469E-1,3.1021085E-1,-2.5806355E-1,6.769249E-1,-6.684093E-1,-3.0874106E-1,-1.6617326E-1,2.7590218E-1,-1.544474E-1,-2.1012698E-1,9.892047E-3,-1.2885986E-1,2.3630285E-1,1.5524285E-1,1.14482984E-1,-6.719292E-1,-5.0279886E-1,3.0922824E-1,-4.1235048E-1,2.2185922E-1,-5.441903E-2,7.274025E-1,6.7292354E-3,-9.081474E-2,-4.9832642E-2,9.566646E-2,-2.876311E-2,-2.0259365E-1,-1.665754E-1,-6.467151E-2,1.9541934E-1,-7.1600765E-2,1.2473058E-1,-1.3570057E-1,2.3690374E-1,-8.414906E-2,-7.586679E-3,-1.8427509E-1,2.4575864E-1,-8.1284225E-2],"categories":[],"categories_nodes":[],"categories_segments":[],"categories_sizes":[],"default_left":[0,0,0,0,0,0,0,0,0,0,0,0,0,0,0,0,0,0,0,0,0,0,0,0,0,0,0,0,0,0,0,0,0,0,0,0,0,0,0,0,0,0,0,0,0,0,0,0,0,0,0,0,0],"id":3,"left_children":[1,3,5,-1,7,9,11,-1,13,-1,15,17,19,21,-1,23,25,27,29,31,33,-1,35,-1,-1,-1,-1,37,39,41,43,45,47,49,51,-1,-1,-1,-1,-1,-1,-1,-1,-1,-1,-1,-1,-1,-1,-1,-1,-1,-1],"loss_changes":[8.015137E2,1.7304688E0,2.9705132E3,0E0,8.11969E0,1.0848145E1,8.574658E1,0E0,2.126554E1,0E0,2.4772167E0,3.4259216E1,1.2368876E1,1.2467563E-1,0E0,1.889739E-1,4.8807716E-1,2.804657E0,4.4081963E1,1.1733884E1,1.9688797E1,0E0,3.7885642E-1,0E0,0E0,0E0,0E0,3.560821E-1,1.8559265E0,4.085724E0,1.6682346E1,2.668808E0,1.3901684E1,1.2404346E0,5.329527E0,0E0,0E0,0E0,0E0,0E0,0E0,0E0,0E0,0E0,0E0,0E0,0E0,0E0,0E0,0E0,0E0,0E0,0E0],"parents":[2147483647,0,0,1,1,2,2,4,4,5,5,6,6,8,8,10,10,11,11,12,12,13,13,15,15,16,16,17,17,18,18,19,19,20,20,22,22,27,27,28,28,29,29,30,30,31,31,32,32,33,33,34,34],"right_children":[2,4,6,-1,8,10,12,-1,14,-1,16,18,20,22,-1,24,26,28,30,32,34,-1,36,-1,-1,-1,-1,38,40,42,44,46,48,50,52,-1,-1,-1,-1,-1,-1,-1,-1,-1,-1,-1,-1,-1,-1,-1,-1,-1,-1],"split_conditions":[4.9874234E-1,4.8558033E-1,3.957306E-1,3.3159482E-1,2.0855418E-1,3.444423E-1,5.981794E-1,3.3087692E-1,6.198593E-1,3.3205158E-1,6.7272013E-1,6.267335E-1,5.0997895E-1,5.177325E-1,3.1021085E-1,6.0328186E-1,3.732407E-1,4.6466118E-1,4.6466118E-1,6.2509066E-1,6.1129874E-1,-1.544474E-1,6.056243E-1,9.892047E-3,-1.2885986E-1,2.3630285E-1,1.5524285E-1,5.929628E-1,5.1360923E-1,4.5175403E-1,4.751882E-1,6.1129874E-1,5.047319E-1,5.401165E-1,6.2509066E-1,6.7292354E-3,-9.081474E-2,-4.9832642E-2,9.566646E-2,-2.876311E-2,-2.0259365E-1,-1.665754E-1,-6.467151E-2,1.9541934E-1,-7.1600765E-2,1.2473058E-1,-1.3570057E-1,2.3690374E-1,-8.414906E-2,-7.586679E-3,-1.8427509E-1,2.4575864E-1,-8.1284225E-2],"split_indices":[0,0,1,0,1,1,1,0,1,0,0,0,0,1,0,0,1,1,1,1,1,0,1,0,0,0,0,0,0,1,1,1,0,0,1,0,0,0,0,0,0,0,0,0,0,0,0,0,0,0,0,0,0],"split_type":[0,0,0,0,0,0,0,0,0,0,0,0,0,0,0,0,0,0,0,0,0,0,0,0,0,0,0,0,0,0,0,0,0,0,0,0,0,0,0,0,0,0,0,0,0,0,0,0,0,0,0,0,0],"sum_hessian":[2.9619389E4,2.3282844E4,6.3365454E3,2.3045908E4,2.369346E2,4.7307656E3,1.6057802E3,1.7741714E2,5.9517464E1,4.678542E3,5.2223473E1,1.3541517E3,2.5162837E2,1.7578848E1,4.1938614E1,2.5029461E0,4.9720524E1,9.8885895E2,3.6529285E2,1.20878365E2,1.3075002E2,1.2993487E0,1.62795E1,1.227387E0,1.2755593E0,2.7015722E1,2.2704802E1,4.284894E0,9.8457404E2,2.781372E2,8.715566E1,7.391942E1,4.6958942E1,7.6015755E1,5.473426E1,4.8515263E0,1.1427973E1,1.8848591E0,2.400035E0,5.9196763E0,9.7865436E2,2.3439893E2,4.373827E1,5.353402E1,3.362164E1,2.9718387E0,7.094758E1,2.1774725E1,2.5184216E1,7.324949E1,2.7662706E0,5.028983E1,4.4444313E0],"tree_param":{"num_deleted":"0","num_feature":"2","num_nodes":"53","size_leaf_vector":"1"}},{"base_weights":[-5.2171785E-1,-6.4321506E-1,-1.5081406E-1,-1.9319475E-1,-4.960881E-1,-6.4138824E-1,6.527013E-1,-1.908945E-1,-1.6413926E-1,-6.441027E-1,-2.3214345E-1,7.389038E-1,9.541545E-2,4.4472435E-1,-1.6631493E-1,-1.934958E-1,-1.3933212E-1,2.7651763E-1,-9.460998E-2,8.450138E-1,4.222083E-1,2.6925176E-1,-9.9403314E-2,2.3767485E-1,6.1355438E-2,-1.22464865E-1,2.1533442E-1,2.8193736E-1,8.512342E-1,-9.261509E-3,6.4702135E-1,4.1280073E-1,-1.8141361E-2,-4.1894978E-1,7.325291E-2,2.0402288E-1,-3.8808107E-2,-5.432427E-2,2.5636306E-1,1.2042138E-1,-2.8168064E-2,2.185469E-1,7.726473E-2,-7.8547716E-2,1.309922E-1,-1.3859761E-1,7.097911E-2,-1.4477688E-1,4.3850962E-2,3.9738435E-2,-7.0785165E-2],"categories":[],"categories_nodes":[],"categories_segments":[],"categories_sizes":[],"default_left":[0,0,0,0,0,0,0,0,0,0,0,0,0,0,0,0,0,0,0,0,0,0,0,0,0,0,0,0,0,0,0,0,0,0,0,0,0,0,0,0,0,0,0,0,0,0,0,0,0,0,0],"id":4,"left_children":[1,3,5,-1,7,9,11,-1,13,15,17,19,21,23,-1,-1,-1,25,-1,27,29,31,33,-1,-1,-1,-1,35,37,39,41,43,45,47,49,-1,-1,-1,-1,-1,-1,-1,-1,-1,-1,-1,-1,-1,-1,-1,-1],"loss_changes":[9.004702E2,1.3803711E0,1.9446594E3,0E0,3.7342033E0,3.2531738E0,8.977673E1,0E0,6.3859024E0,1.8310547E-1,1.0077697E0,5.4068665E1,8.550754E0,7.26773E-1,0E0,0E0,0E0,1.3778669E0,0E0,4.005493E0,3.962667E1,5.50591E0,6.6189766E0,0E0,0E0,0E0,0E0,2.5016246E0,4.2488403E0,4.934952E0,8.333511E0,1.5445118E0,5.2372694E0,1.5823746E0,1.4661398E0,0E0,0E0,0E0,0E0,0E0,0E0,0E0,0E0,0E0,0E0,0E0,0E0,0E0,0E0,0E0,0E0],"parents":[2147483647,0,0,1,1,2,2,4,4,5,5,6,6,8,8,9,9,10,10,11,11,12,12,13,13,17,17,19,19,20,20,21,21,22,22,27,27,28,28,29,29,30,30,31,31,32,32,33,33,34,34],"right_children":[2,4,6,-1,8,10,12,-1,14,16,18,20,22,24,-1,-1,-1,26,-1,28,30,32,34,-1,-1,-1,-1,36,38,40,42,44,46,48,50,-1,-1,-1,-1,-1,-1,-1,-1,-1,-1,-1,-1,-1,-1,-1,-1],"split_conditions":[4.9874234E-1,4.902669E-1,3.957306E-1,-1.9319475E-1,6.056243E-1,3.732407E-1,5.981794E-1,-1.908945E-1,6.198593E-1,3.444423E-1,6.7272013E-1,6.267335E-1,5.0997895E-1,6.1129874E-1,-1.6631493E-1,-1.934958E-1,-1.3933212E-1,5.1360923E-1,-9.460998E-2,5.1989836E-1,6.6111E-1,6.2509066E-1,5.1989836E-1,2.3767485E-1,6.1355438E-2,-1.22464865E-1,2.1533442E-1,5.724934E-1,4.6466118E-1,6.3755095E-1,6.840018E-1,6.1129874E-1,5.047319E-1,6.2509066E-1,5.293791E-1,2.0402288E-1,-3.8808107E-2,-5.432427E-2,2.5636306E-1,1.2042138E-1,-2.8168064E-2,2.185469E-1,7.726473E-2,-7.8547716E-2,1.309922E-1,-1.3859761E-1,7.097911E-2,-1.4477688E-1,4.3850962E-2,3.9738435E-2,-7.0785165E-2],"split_indices":[0,0,1,0,1,1,1,0,1,1,0,0,0,1,0,0,0,0,0,0,0,1,0,0,0,0,0,1,1,0,0,1,0,1,0,0,0,0,0,0,0,0,0,0,0,0,0,0,0,0,0],"split_type":[0,0,0,0,0,0,0,0,0,0,0,0,0,0,0,0,0,0,0,0,0,0,0,0,0,0,0,0,0,0,0,0,0,0,0,0,0,0,0,0,0,0,0,0,0,0,0,0,0,0,0],"sum_hessian":[1.9983287E4,1.5051969E4,4.931319E3,1.4970503E4,8.14662E1,3.062039E3,1.86928E3,5.6627743E1,2.483846E1,3.041293E3,2.0746128E1,1.6185867E3,2.5069328E2,9.647186E0,1.5191274E1,3.023837E3,1.745614E1,2.5904787E0,1.815565E1,1.2111263E3,4.0746042E2,1.3227899E2,1.1841428E2,3.003534E0,6.6436524E0,1.0445243E0,1.5459543E0,1.373952E1,1.1973868E3,1.3990607E2,2.6755432E2,8.792519E1,4.43538E1,4.10373E1,7.737698E1,6.6493835E0,7.0901365E0,3.654591E0,1.1937322E3,2.3266315E1,1.16639755E2,2.2055006E2,4.7004265E1,2.66032E0,8.526487E1,1.5876804E1,2.8476995E1,3.7014973E1,4.022325E0,6.542125E1,1.1955735E1],"tree_param":{"num_deleted":"0","num_feature":"2","num_nodes":"51","size_leaf_vector":"1"}},{"base_weights":[8.663225E-1,9.153626E-1,6.705676E-1,2.7574873E-1,8.9362097E-1,9.132914E-1,-3.6745727E-1,8.977637E-1,5.836318E-1,2.7534133E-1,4.8931932E-1,-4.8069805E-1,1.008033E-1,2.7575135E-1,8.791479E-1,1.2404308E-1,2.4015512E-1,-2.0305498E-1,5.208622E-1,-6.010974E-1,-2.1002588E-1,-7.984617E-2,2.4438405E-1,-1.3816042E-1,9.0932566E-1,-2.467657E-4,1.9860017E-1,1.7577512E-2,-1.1533648E-1,4.0942955E-1,6.5468496E-1,1.03645615E-1,-6.0564566E-1,-4.1800705E-1,2.8894022E-1,-3.1586152E-1,2.2706401E-1,6.159484E-1,-3.968527E-2,-2.67626E-1,5.035756E-2,2.1842477E-1,2.7429575E-1,1.922402E-1,9.53603E-2,2.6404008E-1,1.3074003E-1,-4.0205684E-2,7.754885E-2,8.1052355E-2,-1.8243532E-1,2.0485107E-2,-1.3369635E-1,1.5976894E-1,-5.9987973E-2,1.0071007E-1,-1.07178144E-1,1.8538004E-1,-6.2730275E-2,-5.3703044E-2,2.0010525E-1,-3.5387915E-2,1.1048304E-1],"categories":[],"categories_nodes":[],"categories_segments":[],"categories_sizes":[],"default_left":[0,0,0,0,0,0,0,0,0,0,0,0,0,0,0,0,0,0,0,0,0,0,0,0,0,0,0,0,0,0,0,0,0,0,0,0,0,0,0,0,0,0,0,0,0,0,0,0,0,0,0,0,0,0,0,0,0,0,0,0,0,0,0],"id":5,"left_children":[1,3,5,-1,7,9,11,13,15,-1,17,19,21,-1,23,25,-1,27,29,31,33,35,37,39,41,-1,-1,-1,-1,43,45,47,49,51,53,55,57,59,61,-1,-1,-1,-1,-1,-1,-1,-1,-1,-1,-1,-1,-1,-1,-1,-1,-1,-1,-1,-1,-1,-1,-1,-1],"loss_changes":[3.180547E2,1.3691406E0,1.6767705E3,0E0,4.5932617E0,9.870117E0,6.695227E1,7.583008E-1,5.4236584E0,0E0,1.3930645E0,3.2989853E1,6.4139776E0,0E0,6.536841E1,1.2733134E0,0E0,1.7857525E-1,5.768175E-1,2.3154602E0,3.2746716E1,8.034296E0,1.4548596E1,1.4475648E1,1.2023926E0,0E0,0E0,0E0,0E0,5.077677E-1,8.043461E-1,2.3192006E-1,1.6764526E0,3.0192642E0,1.1193403E1,1.8073835E0,8.375145E0,2.5423203E0,2.563703E0,0E0,0E0,0E0,0E0,0E0,0E0,0E0,0E0,0E0,0E0,0E0,0E0,0E0,0E0,0E0,0E0,0E0,0E0,0E0,0E0,0E0,0E0,0E0,0E0],"parents":[2147483647,0,0,1,1,2,2,4,4,5,5,6,6,7,7,8,8,10,10,11,11,12,12,14,14,15,15,17,17,18,18,19,19,20,20,21,21,22,22,23,23,24,24,29,29,30,30,31,31,32,32,33,33,34,34,35,35,36,36,37,37,38,38],"right_children":[2,4,6,-1,8,10,12,14,16,-1,18,20,22,-1,24,26,-1,28,30,32,34,36,38,40,42,-1,-1,-1,-1,44,46,48,50,52,54,56,58,60,62,-1,-1,-1,-1,-1,-1,-1,-1,-1,-1,-1,-1,-1,-1,-1,-1,-1,-1,-1,-1,-1,-1,-1,-1],"split_conditions":[4.9874234E-1,3.185239E-1,3.957306E-1,2.7574873E-1,7.365532E-1,3.444423E-1,5.981794E-1,2.0855418E-1,7.386198E-1,2.7534133E-1,6.7272013E-1,6.267335E-1,5.0997895E-1,2.7575135E-1,6.198593E-1,3.2581437E-1,2.4015512E-1,6.0328186E-1,7.118462E-1,4.6466118E-1,4.6466118E-1,6.2509066E-1,5.1989836E-1,5.131966E-1,3.2581437E-1,-2.467657E-4,1.9860017E-1,1.7577512E-2,-1.1533648E-1,7.0158696E-1,7.1707267E-1,5.929628E-1,5.047319E-1,6.506908E-1,4.751882E-1,6.1129874E-1,5.047319E-1,6.056243E-1,5.293791E-1,-2.67626E-1,5.035756E-2,2.1842477E-1,2.7429575E-1,1.922402E-1,9.53603E-2,2.6404008E-1,1.3074003E-1,-4.0205684E-2,7.754885E-2,8.1052355E-2,-1.8243532E-1,2.0485107E-2,-1.3369635E-1,1.5976894E-1,-5.9987973E-2,1.0071007E-1,-1.07178144E-1,1.8538004E-1,-6.2730275E-2,-5.3703044E-2,2.0010525E-1,-3.5387915E-2,1.1048304E-1],"split_indices":[0,0,1,0,1,1,1,1,1,0,0,0,0,0,1,0,0,0,0,1,1,1,0,1,0,0,0,0,0,0,0,0,0,0,1,1,0,1,0,0,0,0,0,0,0,0,0,0,0,0,0,0,0,0,0,0,0,0,0,0,0,0,0],"split_type":[0,0,0,0,0,0,0,0,0,0,0,0,0,0,0,0,0,0,0,0,0,0,0,0,0,0,0,0,0,0,0,0,0,0,0,0,0,0,0,0,0,0,0,0,0,0,0,0,0,0,0,0,0,0,0,0,0,0,0,0,0,0,0],"sum_hessian":[3.319408E4,2.6541328E4,6.6527495E3,2.2557662E4,3.983667E3,5.3920366E3,1.2607126E3,3.929259E3,5.440799E1,5.334093E3,5.7943687E1,1.0151818E3,2.4553084E2,1.8050992E3,2.1241597E3,1.7947796E1,3.6460194E1,2.2878327E0,5.5655857E1,7.017924E2,3.133894E2,1.08926414E2,1.3660443E2,6.1093315E1,2.0630664E3,1.5377083E1,2.570713E0,1.213915E0,1.0739177E0,3.258346E1,2.3072395E1,4.360419E0,6.97432E2,2.2130595E2,9.2083435E1,6.155849E1,4.7367928E1,5.8681015E1,7.792341E1,1.7085453E1,4.4007862E1,5.9251675E1,2.0038146E3,7.5376773E0,2.5045784E1,9.877602E0,1.3194794E1,1.7732942E0,2.5871246E0,1.6581961E0,6.957738E2,1.1826147E1,2.0947981E2,6.139867E1,3.0684763E1,3.252935E0,5.8305557E1,2.4761316E1,2.260661E1,3.3909593E0,5.529006E1,6.597571E1,1.1947701E1],"tree_param":{"num_deleted":"0","num_feature":"2","num_nodes":"63","size_leaf_vector":"1"}},{"base_weights":[-4.5940378E-1,-6.063726E-1,-7.089473E-2,-6.074613E-1,-4.1098127E-1,-6.040435E-1,5.507472E-1,-1.8295343E-1,-5.931041E-1,-1.793952E-1,-4.0501118E-2,-6.0773057E-1,-1.4758246E-1,6.188527E-1,8.811741E-2,-1.7879957E-1,-3.667789E-1,4.505026E-1,-1.4597207E-1,-1.8267265E-1,-3.9584756E-1,3.3230186E-1,-2.4035749E-1,7.0733565E-1,3.5277057E-1,2.1081154E-1,-6.1337046E-2,-1.6178468E-2,-1.535421E-1,2.4023281E-1,6.0622677E-2,-1.3650244E-1,-7.827807E-2,5.9936116E-3,1.603478E-1,-9.843188E-2,-5.7000745E-2,2.2143427E-1,7.1249485E-1,4.361196E-3,5.177157E-1,3.0726257E-1,-2.0133082E-3,-3.276421E-1,5.643821E-2,2.6108729E-2,-9.865827E-2,1.6497166E-1,-4.7295578E-2,-4.558883E-2,2.1449195E-1,1.002863E-1,-2.1889843E-2,1.910625E-1,8.5531935E-2,1.1958832E-1,4.7102403E-2,-1.1563187E-1,5.1044777E-2,-1.222446E-1,6.522388E-2,9.701725E-3,2.4324583E-1],"categories":[],"categories_nodes":[],"categories_segments":[],"categories_sizes":[],"default_left":[0,0,0,0,0,0,0,0,0,0,0,0,0,0,0,0,0,0,0,0,0,0,0,0,0,0,0,0,0,0,0,0,0,0,0,0,0,0,0,0,0,0,0,0,0,0,0,0,0,0,0,0,0,0,0,0,0,0,0,0,0,0,0],"id":6,"left_children":[1,3,5,7,9,11,13,-1,15,-1,17,19,21,23,25,-1,27,29,-1,-1,31,33,35,37,39,41,43,45,-1,-1,-1,-1,-1,-1,-1,-1,-1,47,49,51,53,55,57,59,61,-1,-1,-1,-1,-1,-1,-1,-1,-1,-1,-1,-1,-1,-1,-1,-1,-1,-1],"loss_changes":[8.765508E2,2.1193848E0,1.3972186E3,1.7333984E-2,4.4658184E0,3.7296143E0,6.1272156E1,0E0,8.3813477E-1,0E0,5.215638E0,3.2086182E-1,9.4824207E-1,3.9691895E1,4.6143665E0,0E0,1.159684E0,8.2831097E-1,0E0,0E0,3.4434795E-3,2.1537021E-1,1.2443721E-2,3.03125E0,2.4442284E1,2.8339825E0,3.5910177E0,2.788531E-1,0E0,0E0,0E0,0E0,0E0,0E0,0E0,0E0,0E0,1.9315796E0,2.8044434E0,3.536904E0,7.8198547E0,1.2414417E0,2.9727092E0,1.614953E0,1.4250793E0,0E0,0E0,0E0,0E0,0E0,0E0,0E0,0E0,0E0,0E0,0E0,0E0,0E0,0E0,0E0,0E0,0E0,0E0],"parents":[2147483647,0,0,1,1,2,2,3,3,4,4,5,5,6,6,8,8,10,10,11,11,12,12,13,13,14,14,16,16,17,17,20,20,21,21,22,22,23,23,24,24,25,25,26,26,27,27,37,37,38,38,39,39,40,40,41,41,42,42,43,43,44,44],"right_children":[2,4,6,8,10,12,14,-1,16,-1,18,20,22,24,26,-1,28,30,-1,-1,32,34,36,38,40,42,44,46,-1,-1,-1,-1,-1,-1,-1,-1,-1,48,50,52,54,56,58,60,62,-1,-1,-1,-1,-1,-1,-1,-1,-1,-1,-1,-1,-1,-1,-1,-1,-1,-1],"split_conditions":[4.9874234E-1,4.902669E-1,3.957306E-1,3.185239E-1,6.056243E-1,3.732407E-1,5.981794E-1,-1.8295343E-1,7.365532E-1,-1.793952E-1,6.198593E-1,3.444423E-1,6.7272013E-1,6.267335E-1,5.0997895E-1,-1.7879957E-1,7.386198E-1,6.1129874E-1,-1.4597207E-1,-1.8267265E-1,7.1707267E-1,6.0328186E-1,7.0158696E-1,5.1989836E-1,6.6111E-1,6.2509066E-1,5.1989836E-1,3.2581437E-1,-1.535421E-1,2.4023281E-1,6.0622677E-2,-1.3650244E-1,-7.827807E-2,5.9936116E-3,1.603478E-1,-9.843188E-2,-5.7000745E-2,5.724934E-1,4.6466118E-1,6.3755095E-1,6.7758405E-1,5.047319E-1,5.047319E-1,6.2509066E-1,5.401165E-1,2.6108729E-2,-9.865827E-2,1.6497166E-1,-4.7295578E-2,-4.558883E-2,2.1449195E-1,1.002863E-1,-2.1889843E-2,1.910625E-1,8.5531935E-2,1.1958832E-1,4.7102403E-2,-1.1563187E-1,5.1044777E-2,-1.222446E-1,6.522388E-2,9.701725E-3,2.4324583E-1],"split_indices":[0,0,1,0,1,1,1,0,1,0,1,1,0,0,0,0,1,1,0,0,0,0,0,0,0,1,0,0,0,0,0,0,0,0,0,0,0,1,1,0,0,0,0,1,0,0,0,0,0,0,0,0,0,0,0,0,0,0,0,0,0,0,0],"split_type":[0,0,0,0,0,0,0,0,0,0,0,0,0,0,0,0,0,0,0,0,0,0,0,0,0,0,0,0,0,0,0,0,0,0,0,0,0,0,0,0,0,0,0,0,0,0,0,0,0,0,0,0,0,0,0,0,0,0,0,0,0,0,0],"sum_hessian":[1.5351244E4,1.113749E4,4.213754E3,1.1073681E4,6.380928E1,2.2683452E3,1.9454089E3,9.461496E3,1.6121844E3,4.199693E1,2.1812351E1,2.2498406E3,1.8504625E1,1.6954742E3,2.499347E2,1.5902142E3,2.1970207E1,1.0378514E1,1.1433837E1,2.2355352E3,1.4305391E1,2.5796146E0,1.5925011E1,1.271118E3,4.243561E2,1.370299E2,1.1290478E2,6.754057E0,1.521615E1,3.3839204E0,6.994594E0,8.295525E0,6.009866E0,1.4455272E0,1.1340873E0,3.7953546E0,1.2129657E1,1.3816108E1,1.257302E3,1.3667899E2,2.8767712E2,9.39903E1,4.3039608E1,3.4074963E1,7.882981E1,5.6205444E0,1.1335124E0,7.160798E0,6.6553097E0,3.421832E0,1.2538801E3,2.5320972E1,1.1135801E2,1.8907915E2,9.859796E1,5.742122E1,3.6569084E1,1.2952983E1,3.0086626E1,2.994152E1,4.133444E0,7.740009E1,1.4297212E0],"tree_param":{"num_deleted":"0","num_feature":"2","num_nodes":"63","size_leaf_vector":"1"}},{"base_weights":[7.5028074E-1,7.8363127E-1,6.120415E-1,2.360643E-1,7.6499695E-1,7.812036E-1,-2.871068E-1,5.865778E-1,7.7130675E-1,2.3561746E-1,3.9357063E-1,-4.049138E-1,1.111208E-1,6.72015E-1,3.3137447E-1,2.326679E-1,7.1174556E-1,2.8046346E-1,5.4625463E-1,-5.4881424E-1,-1.3359989E-1,-3.0017823E-2,2.1299574E-1,2.3232782E-1,5.632332E-1,4.999253E-2,2.2272538E-1,2.3551132E-1,4.7109178E-1,-4.546892E-2,3.1014332E-1,2.3365274E-1,9.718737E-2,9.054752E-2,-5.543444E-1,-3.4470218E-1,2.6708785E-1,-2.3900801E-1,2.0706145E-1,4.8774344E-1,-1.796578E-2,-2.8449774E-2,2.0781964E-1,-2.7752118E-2,8.196403E-2,-9.0672374E-2,2.1372403E-1,1.6010022E-1,6.683023E-2,8.34941E-2,-1.8747007E-2,-2.3426414E-2,-1.684514E-1,1.7366989E-2,-1.117811E-1,1.3309795E-1,-4.8656087E-2,8.10567E-2,-8.363176E-2,1.4591828E-1,-4.638316E-2,1.6105771E-1,-5.570781E-2,-2.4971593E-2,8.4365815E-2],"categories":[],"categories_nodes":[],"categories_segments":[],"categories_sizes":[],"default_left":[0,0,0,0,0,0,0,0,0,0,0,0,0,0,0,0,0,0,0,0,0,0,0,0,0,0,0,0,0,0,0,0,0,0,0,0,0,0,0,0,0,0,0,0,0,0,0,0,0,0,0,0,0,0,0,0,0,0,0,0,0,0,0,0,0],"id":7,"left_children":[1,3,5,-1,7,9,11,13,15,-1,17,19,21,23,25,-1,27,29,31,33,35,37,39,-1,41,43,-1,-1,45,-1,47,-1,-1,49,51,53,55,57,59,61,63,-1,-1,-1,-1,-1,-1,-1,-1,-1,-1,-1,-1,-1,-1,-1,-1,-1,-1,-1,-1,-1,-1,-1,-1],"loss_changes":[1.5770898E2,1.0722656E0,1.01526855E3,0E0,4.208496E0,8.809326E0,4.965384E1,2.9518661E0,4.5996094E-1,0E0,9.1820335E-1,3.1794891E1,3.4887354E0,7.681656E-1,4.4146705E0,0E0,4.5414124E0,5.303376E-1,1.0581555E0,1.9349365E0,2.41322E1,5.123455E0,8.942401E0,0E0,4.8455524E0,7.8617716E-1,0E0,0E0,1.2813262E1,0E0,5.763917E-1,0E0,0E0,1.734421E-1,1.7587585E0,2.1173782E0,7.548031E0,1.1867688E0,4.9765024E0,2.22758E0,1.5359335E0,0E0,0E0,0E0,0E0,0E0,0E0,0E0,0E0,0E0,0E0,0E0,0E0,0E0,0E0,0E0,0E0,0E0,0E0,0E0,0E0,0E0,0E0,0E0,0E0],"parents":[2147483647,0,0,1,1,2,2,4,4,5,5,6,6,7,7,8,8,10,10,11,11,12,12,13,13,14,14,16,16,17,17,18,18,19,19,20,20,21,21,22,22,24,24,25,25,28,28,30,30,33,33,34,34,35,35,36,36,37,37,38,38,39,39,40,40],"right_children":[2,4,6,-1,8,10,12,14,16,-1,18,20,22,24,26,-1,28,30,32,34,36,38,40,-1,42,44,-1,-1,46,-1,48,-1,-1,50,52,54,56,58,60,62,64,-1,-1,-1,-1,-1,-1,-1,-1,-1,-1,-1,-1,-1,-1,-1,-1,-1,-1,-1,-1,-1,-1,-1,-1],"split_conditions":[4.9874234E-1,3.185239E-1,3.957306E-1,2.360643E-1,3.2581437E-1,3.444423E-1,5.981794E-1,7.365532E-1,4.8558033E-1,2.3561746E-1,7.118462E-1,6.267335E-1,5.0997895E-1,7.245453E-1,7.40376E-1,2.326679E-1,2.0855418E-1,6.7272013E-1,7.1707267E-1,4.6466118E-1,4.6466118E-1,6.2509066E-1,5.1989836E-1,2.3232782E-1,7.3134905E-1,7.386198E-1,2.2272538E-1,2.3551132E-1,6.198593E-1,-4.546892E-2,7.0158696E-1,2.3365274E-1,9.718737E-2,4.3652323E-1,5.1989836E-1,6.506908E-1,4.751882E-1,6.1129874E-1,5.047319E-1,6.2509066E-1,5.293791E-1,-2.8449774E-2,2.0781964E-1,-2.7752118E-2,8.196403E-2,-9.0672374E-2,2.1372403E-1,1.6010022E-1,6.683023E-2,8.34941E-2,-1.8747007E-2,-2.3426414E-2,-1.684514E-1,1.7366989E-2,-1.117811E-1,1.3309795E-1,-4.8656087E-2,8.10567E-2,-8.363176E-2,1.4591828E-1,-4.638316E-2,1.6105771E-1,-5.570781E-2,-2.4971593E-2,8.4365815E-2],"split_indices":[0,0,1,0,0,1,1,1,0,0,0,0,0,1,1,0,1,0,0,1,1,1,0,0,1,1,0,0,1,0,0,0,0,1,0,0,1,1,0,1,0,0,0,0,0,0,0,0,0,0,0,0,0,0,0,0,0,0,0,0,0,0,0,0,0],"split_type":[0,0,0,0,0,0,0,0,0,0,0,0,0,0,0,0,0,0,0,0,0,0,0,0,0,0,0,0,0,0,0,0,0,0,0,0,0,0,0,0,0,0,0,0,0,0,0,0,0,0,0,0,0,0,0,0,0,0,0,0,0,0,0,0,0],"sum_hessian":[3.431066E4,2.763821E4,6.6724497E3,2.3498906E4,4.1393037E3,5.616008E3,1.056442E3,1.4459595E2,3.9947078E3,5.554968E3,6.103989E1,8.15251E2,2.4119107E2,1.07105736E2,3.749021E1,3.7172617E3,2.774462E2,3.6694077E1,2.4345814E1,5.3204193E2,2.8320908E2,1.0140662E2,1.3978445E2,5.2016495E1,5.508924E1,2.2921085E1,1.4569127E1,2.1094107E2,6.650512E1,2.0948186E0,3.459926E1,1.0674025E1,1.3671789E1,4.4306192E0,5.2761127E2,1.8557738E2,9.763169E1,5.3891785E1,4.7514835E1,6.333293E1,7.645152E1,9.102318E0,4.5986923E1,1.4347511E1,8.573574E0,1.5757286E1,5.074783E1,8.288354E0,2.6310904E1,1.621975E0,2.8086443E0,7.9911695E0,5.196201E2,1.1958118E1,1.7361926E2,6.915353E1,2.8478167E1,3.4839537E0,5.040783E1,2.6614565E1,2.0900272E1,5.9216885E1,4.1160455E0,6.3351902E1,1.3099625E1],"tree_param":{"num_deleted":"0","num_feature":"2","num_nodes":"65","size_leaf_vector":"1"}},{"base_weights":[-4.1741568E-1,-5.796032E-1,-3.4433227E-2,-5.809339E-1,-3.5572633E-1,-5.7678473E-1,4.6911284E-1,-1.7478809E-1,-5.4405594E-1,-1.712219E-1,7.2169527E-3,-1.7488629E-1,-2.0193803E-1,5.274805E-1,7.503292E-2,-1.7479214E-1,-4.6899348E-1,3.7655172E-1,-4.2987263E-1,3.1702143E-1,-2.6307076E-1,6.082253E-1,2.9237843E-1,1.6160965E-1,-3.6199722E-2,1.0116259E0,-1.717751E-1,2.1804361E-1,4.008694E-2,-1.5040009E-1,-7.362219E-2,1.1082289E-3,1.5667301E-1,-1.9532187E-1,-3.5757786E-1,6.238813E-1,4.311349E-1,4.0741026E-1,-1.5339775E-2,1.8157834E-1,-1.6965614E-1,-1.3436644E-1,2.290211E-1,4.719272E-1,1.27433E-1,-9.494937E-2,-4.1800212E-2,-1.437324E-1,-6.246711E-2,1.6941293E-1,2.123952E-1,1.8178296E-1,6.720318E-2,1.4233086E-1,1.7445777E-2,9.953541E-2,-3.0793639E-2,6.907196E-2,1.7473059E-2,-9.486262E-3,-8.700339E-2,1.282714E-1,-3.442084E-2],"categories":[],"categories_nodes":[],"categories_segments":[],"categories_sizes":[],"default_left":[0,0,0,0,0,0,0,0,0,0,0,0,0,0,0,0,0,0,0,0,0,0,0,0,0,0,0,0,0,0,0,0,0,0,0,0,0,0,0,0,0,0,0,0,0,0,0,0,0,0,0,0,0,0,0,0,0,0,0,0,0,0,0],"id":8,"left_children":[1,3,5,7,9,11,13,-1,15,-1,17,-1,19,21,23,-1,25,27,29,31,33,35,37,39,41,43,-1,-1,-1,-1,-1,-1,-1,45,47,49,51,53,55,57,-1,59,61,-1,-1,-1,-1,-1,-1,-1,-1,-1,-1,-1,-1,-1,-1,-1,-1,-1,-1,-1,-1],"loss_changes":[7.7681616E2,2.4108887E0,1.01666614E3,2.2802734E-1,4.256696E0,4.0270996E0,4.4363647E1,0E0,8.8059235E-1,0E0,3.5940068E0,0E0,1.0526431E0,3.1737732E1,2.4153335E0,0E0,2.2111273E1,9.2874455E-1,1.1479735E-2,2.3425737E-1,1.0865259E-1,3.19812E0,1.528833E1,2.1481986E0,2.9031713E0,2.4755468E0,0E0,0E0,0E0,0E0,0E0,0E0,0E0,8.101517E-2,8.967078E-2,5.306793E0,3.659174E0,7.329731E0,3.6234546E0,8.140311E-1,0E0,1.2885891E0,2.1084743E0,0E0,0E0,0E0,0E0,0E0,0E0,0E0,0E0,0E0,0E0,0E0,0E0,0E0,0E0,0E0,0E0,0E0,0E0,0E0,0E0],"parents":[2147483647,0,0,1,1,2,2,3,3,4,4,5,5,6,6,8,8,10,10,12,12,13,13,14,14,16,16,17,17,18,18,19,19,20,20,21,21,22,22,23,23,24,24,25,25,33,33,34,34,35,35,36,36,37,37,38,38,39,39,41,41,42,42],"right_children":[2,4,6,8,10,12,14,-1,16,-1,18,-1,20,22,24,-1,26,28,30,32,34,36,38,40,42,44,-1,-1,-1,-1,-1,-1,-1,46,48,50,52,54,56,58,-1,60,62,-1,-1,-1,-1,-1,-1,-1,-1,-1,-1,-1,-1,-1,-1,-1,-1,-1,-1,-1,-1],"split_conditions":[4.9874234E-1,4.902669E-1,3.957306E-1,4.4177082E-1,6.056243E-1,3.444423E-1,5.981794E-1,-1.7478809E-1,-3.543802E-1,-1.712219E-1,6.198593E-1,-1.7488629E-1,6.7272013E-1,6.267335E-1,5.0997895E-1,-1.7479214E-1,6.1129874E-1,6.1129874E-1,6.326234E-1,6.0328186E-1,7.118462E-1,5.804999E-1,4.5175403E-1,6.326234E-1,5.260612E-1,5.5280674E-1,-1.717751E-1,2.1804361E-1,4.008694E-2,-1.5040009E-1,-7.362219E-2,1.1082289E-3,1.5667301E-1,7.0158696E-1,7.1707267E-1,5.594131E-1,5.436073E-1,6.840018E-1,6.3755095E-1,6.2509066E-1,-1.6965614E-1,6.1129874E-1,5.293791E-1,4.719272E-1,1.27433E-1,-9.494937E-2,-4.1800212E-2,-1.437324E-1,-6.246711E-2,1.6941293E-1,2.123952E-1,1.8178296E-1,6.720318E-2,1.4233086E-1,1.7445777E-2,9.953541E-2,-3.0793639E-2,6.907196E-2,1.7473059E-2,-9.486262E-3,-8.700339E-2,1.282714E-1,-3.442084E-2],"split_indices":[0,0,1,0,1,1,1,0,1,0,1,0,0,0,0,0,1,1,1,0,0,1,1,1,0,1,0,0,0,0,0,0,0,0,0,1,0,0,0,1,0,1,0,0,0,0,0,0,0,0,0,0,0,0,0,0,0,0,0,0,0,0,0],"split_type":[0,0,0,0,0,0,0,0,0,0,0,0,0,0,0,0,0,0,0,0,0,0,0,0,0,0,0,0,0,0,0,0,0,0,0,0,0,0,0,0,0,0,0,0,0,0,0,0,0,0,0,0,0,0,0,0,0,0,0,0,0,0,0],"sum_hessian":[1.2505422E4,8.78471E3,3.7207114E3,8.731216E3,5.3493942E1,1.7912618E3,1.9294496E3,8.333824E3,3.97392E2,3.3233414E1,2.0260527E1,1.7617108E3,2.9551043E1,1.6802478E3,2.4920183E2,2.580063E2,1.393857E2,1.1056465E1,9.204061E0,2.673104E0,2.687794E1,1.2495188E3,4.30729E2,1.3987709E2,1.0932473E2,8.5411415E0,1.3084456E2,3.7122214E0,7.344244E0,5.3959365E0,3.8081243E0,1.4607978E0,1.2123063E0,1.7441484E1,9.436455E0,1.1457074E3,1.0381143E2,3.1329022E2,1.17438774E2,1.3686864E2,3.008452E0,8.015148E1,2.9173246E1,3.5061152E0,5.0350266E0,4.041462E0,1.34000225E1,3.9855394E0,5.4509153E0,6.7706415E2,4.686432E2,5.5253345E1,4.8558086E1,2.625466E2,5.0743618E1,2.303844E1,9.440033E1,9.752396E1,3.9344685E1,4.9005035E1,3.1146446E1,1.8337755E1,1.0835492E1],"tree_param":{"num_deleted":"0","num_feature":"2","num_nodes":"63","size_leaf_vector":"1"}},{"base_weights":[6.6985637E-1,6.966697E-1,5.600701E-1,2.0988578E-1,6.792175E-1,6.967027E-1,-1.9180816E-1,5.1018846E-1,6.854196E-1,2.0945208E-1,4.328257E-1,1.6989331E-1,-3.1203628E-1,2.068522E-1,4.0293097E-1,2.1031901E-1,6.7232716E-1,5.501519E-1,7.59804E-2,-1.1533258E-1,2.0241027E-1,-4.8124856E-1,-5.0331023E-2,-1.6711351E-1,4.61661E-1,-5.2023166E-1,6.9578624E-1,3.1678182E-1,2.0615658E-1,3.818625E-1,-1.8995221E-1,1.0974277E-1,3.2550862E-1,-1.2555023E-1,-5.140045E-1,-2.065316E-1,2.3935424E-1,-1.2846068E-1,6.1805174E-3,1.7833422E-1,8.661365E-2,-3.434466E-1,-4.4353247E-2,6.257093E-2,2.0898758E-1,1.5474221E-1,5.6063477E-2,-3.0926907E-2,2.0519969E-1,4.119946E-2,-6.3231714E-2,-4.4265468E-2,9.223333E-2,3.3541076E-2,1.3114499E-1,-1.0783174E-1,3.834615E-2,3.7392594E-3,-1.5612034E-1,-9.2167795E-2,5.7581812E-2,-9.627386E-2,9.736872E-2],"categories":[],"categories_nodes":[],"categories_segments":[],"categories_sizes":[],"default_left":[0,0,0,0,0,0,0,0,0,0,0,0,0,0,0,0,0,0,0,0,0,0,0,0,0,0,0,0,0,0,0,0,0,0,0,0,0,0,0,0,0,0,0,0,0,0,0,0,0,0,0,0,0,0,0,0,0,0,0,0,0,0,0],"id":9,"left_children":[1,3,5,-1,7,9,11,13,15,-1,17,19,21,-1,23,-1,25,27,-1,29,31,33,35,37,39,41,43,45,-1,47,49,51,53,55,57,59,61,-1,-1,-1,-1,-1,-1,-1,-1,-1,-1,-1,-1,-1,-1,-1,-1,-1,-1,-1,-1,-1,-1,-1,-1,-1,-1],"loss_changes":[9.7009766E1,8.935547E-1,6.678696E2,0E0,3.7160645E0,1.8325195E0,4.3553234E1,2.4375572E0,2.944336E-1,0E0,5.584197E-1,2.3438454E0,3.3237892E1,0E0,3.1152468E0,0E0,5.797632E1,3.9565372E-1,0E0,1.0461111E0,2.5303984E0,5.2490234E0,1.3446005E1,4.6022448E-1,1.7238541E0,9.204453E0,6.804199E-1,1.3501847E-1,0E0,6.209391E-1,1.8897468E-1,6.650513E0,2.2440472E0,2.4032793E0,1.4116898E0,7.79823E0,5.077574E0,0E0,0E0,0E0,0E0,0E0,0E0,0E0,0E0,0E0,0E0,0E0,0E0,0E0,0E0,0E0,0E0,0E0,0E0,0E0,0E0,0E0,0E0,0E0,0E0,0E0,0E0],"parents":[2147483647,0,0,1,1,2,2,4,4,5,5,6,6,7,7,8,8,10,10,11,11,12,12,14,14,16,16,17,17,19,19,20,20,21,21,22,22,23,23,24,24,25,25,26,26,27,27,29,29,30,30,31,31,32,32,33,33,34,34,35,35,36,36],"right_children":[2,4,6,-1,8,10,12,14,16,-1,18,20,22,-1,24,-1,26,28,-1,30,32,34,36,38,40,42,44,46,-1,48,50,52,54,56,58,60,62,-1,-1,-1,-1,-1,-1,-1,-1,-1,-1,-1,-1,-1,-1,-1,-1,-1,-1,-1,-1,-1,-1,-1,-1,-1,-1],"split_conditions":[4.902669E-1,3.185239E-1,3.732407E-1,2.0988578E-1,3.2581437E-1,3.444423E-1,5.260612E-1,7.245453E-1,1.3140644E-1,2.0945208E-1,7.1707267E-1,6.056243E-1,6.267335E-1,2.068522E-1,7.3134905E-1,2.1031901E-1,6.056243E-1,7.118462E-1,7.59804E-2,5.047319E-1,5.0997895E-1,5.401165E-1,4.6466118E-1,7.2823083E-1,7.365532E-1,5.131966E-1,6.1129874E-1,7.0158696E-1,2.0615658E-1,5.9016156E-1,4.5175403E-1,6.2509066E-1,6.1129874E-1,5.293791E-1,4.6466118E-1,6.8932086E-1,6.3755095E-1,-1.2846068E-1,6.1805174E-3,1.7833422E-1,8.661365E-2,-3.434466E-1,-4.4353247E-2,6.257093E-2,2.0898758E-1,1.5474221E-1,5.6063477E-2,-3.0926907E-2,2.0519969E-1,4.119946E-2,-6.3231714E-2,-4.4265468E-2,9.223333E-2,3.3541076E-2,1.3114499E-1,-1.0783174E-1,3.834615E-2,3.7392594E-3,-1.5612034E-1,-9.2167795E-2,5.7581812E-2,-9.627386E-2,9.736872E-2],"split_indices":[0,0,1,0,0,1,0,1,1,0,0,1,0,0,1,0,1,0,0,0,0,0,1,1,1,1,1,0,0,1,1,1,1,0,1,0,0,0,0,0,0,0,0,0,0,0,0,0,0,0,0,0,0,0,0,0,0,0,0,0,0,0,0],"split_type":[0,0,0,0,0,0,0,0,0,0,0,0,0,0,0,0,0,0,0,0,0,0,0,0,0,0,0,0,0,0,0,0,0,0,0,0,0,0,0,0,0,0,0,0,0,0,0,0,0,0,0,0,0,0,0,0,0,0,0,0,0,0,0],"sum_hessian":[3.3086312E4,2.658747E4,6.498842E3,2.2710154E4,3.8773157E3,5.499531E3,9.9931104E2,1.4018127E2,3.7371345E3,5.4674097E3,3.2121063E1,2.4919745E2,7.501136E2,5.0434185E1,8.9747086E1,1.6787347E3,2.0583997E3,1.8178791E1,1.3942274E1,2.5241566E1,2.2395589E2,4.5505026E2,2.9506332E2,8.210361E0,8.153672E1,3.9301487E1,2.0190981E3,7.950663E0,1.02281275E1,2.7566154E0,2.2484951E1,1.2885005E2,9.510583E1,3.877914E1,4.1627112E2,1.9188466E2,1.0317867E2,2.8981981E0,5.3121624E0,4.4745197E1,3.6791523E1,1.390497E1,2.5396517E1,3.9001884E0,2.015198E3,1.9667332E0,5.98393E0,1.3110604E0,1.445555E0,1.0101272E0,2.1474823E1,5.6097244E1,7.2752815E1,3.3321976E1,6.1783855E1,1.994713E1,1.8832012E1,4.9856052E0,4.1128552E2,1.5335942E2,3.852523E1,1.3255282E1,8.992339E1],"tree_param":{"num_deleted":"0","num_feature":"2","num_nodes":"63","size_leaf_vector":"1"}},{"base_weights":[-3.898085E-1,-5.594858E-1,-2.1213815E-2,-5.6105083E-1,-3.147326E-1,-5.614362E-1,4.0084746E-1,-1.6947588E-1,-5.381249E-1,-1.6475138E-1,1.9928755E-2,-1.6899076E-1,-2.9030493E-1,8.579152E-2,4.5404604E-1,-3.434285E-1,-5.4587007E-1,3.3409512E-1,-4.0229163E-1,-1.0737424E-1,-4.9293626E-2,4.230038E-1,6.0413774E-2,5.3914446E-1,2.3110187E-1,-4.282202E-1,-1.2006566E-1,-1.6466832E-1,-4.5636272E-1,2.0332864E-1,2.8816538E-2,-1.4574595E-1,-6.0893986E-2,-1.246872E-1,2.019915E-1,-3.0135E-2,1.349933E-1,6.0065454E-1,4.7763312E-1,3.6880565E-1,6.2743604E-2,-1.5866E-1,-9.473955E-2,3.244303E-2,-1.4157633E-1,-1.6393675E-1,-4.9223375E-2,8.397077E-2,-1.4089835E-1,1.404151E-1,-2.277973E-2,4.2659026E-2,-3.3015832E-2,1.1562121E-1,1.91701E-1,1.644908E-1,3.975045E-2,3.7523255E-2,1.9632772E-1,-9.34805E-3,5.9031796E-2],"categories":[],"categories_nodes":[],"categories_segments":[],"categories_sizes":[],"default_left":[0,0,0,0,0,0,0,0,0,0,0,0,0,0,0,0,0,0,0,0,0,0,0,0,0,0,0,0,0,0,0,0,0,0,0,0,0,0,0,0,0,0,0,0,0,0,0,0,0,0,0,0,0,0,0,0,0,0,0,0,0],"id":10,"left_children":[1,3,5,7,9,11,13,-1,15,-1,17,-1,19,21,23,25,27,29,31,-1,-1,33,35,37,39,41,43,-1,45,-1,-1,-1,-1,47,-1,49,51,53,55,57,59,-1,-1,-1,-1,-1,-1,-1,-1,-1,-1,-1,-1,-1,-1,-1,-1,-1,-1,-1,-1],"loss_changes":[6.629304E2,2.6035156E0,7.623179E2,3.3569336E-1,3.8080182E0,5.784302E-1,3.1420593E1,0E0,1.4143677E0,0E0,2.9069686E0,0E0,4.4163346E-2,2.3054485E0,3.0337372E1,7.6936245E-1,2.5604248E-2,9.599898E-1,5.7399035E-2,0E0,0E0,2.6746104E0,1.7226561E0,4.1069946E0,1.030072E1,1.840043E-1,1.1201271E0,0E0,9.443636E-1,0E0,0E0,0E0,0E0,1.0765505E0,0E0,2.676597E0,2.6230192E-1,4.5147705E0,1.4208542E1,1.6956112E1,2.542921E0,0E0,0E0,0E0,0E0,0E0,0E0,0E0,0E0,0E0,0E0,0E0,0E0,0E0,0E0,0E0,0E0,0E0,0E0,0E0,0E0],"parents":[2147483647,0,0,1,1,2,2,3,3,4,4,5,5,6,6,8,8,10,10,12,12,13,13,14,14,15,15,16,16,17,17,18,18,21,21,22,22,23,23,24,24,25,25,26,26,28,28,33,33,35,35,36,36,37,37,38,38,39,39,40,40],"right_children":[2,4,6,8,10,12,14,-1,16,-1,18,-1,20,22,24,26,28,30,32,-1,-1,34,36,38,40,42,44,-1,46,-1,-1,-1,-1,48,-1,50,52,54,56,58,60,-1,-1,-1,-1,-1,-1,-1,-1,-1,-1,-1,-1,-1,-1,-1,-1,-1,-1,-1,-1],"split_conditions":[4.9874234E-1,4.902669E-1,3.732407E-1,3.185239E-1,6.056243E-1,3.444423E-1,5.3537214E-1,-1.6947588E-1,3.2581437E-1,-1.6475138E-1,6.198593E-1,-1.6899076E-1,7.1707267E-1,5.9016156E-1,6.267335E-1,7.365532E-1,4.8558033E-1,6.1129874E-1,6.326234E-1,-1.0737424E-1,-4.9293626E-2,5.1360923E-1,6.198593E-1,5.7574004E-1,4.3652323E-1,7.245453E-1,7.40376E-1,-1.6466832E-1,-5.4349536E-1,2.0332864E-1,2.8816538E-2,-1.4574595E-1,-6.0893986E-2,5.0997895E-1,2.019915E-1,5.047319E-1,6.326234E-1,5.498308E-1,5.4070556E-1,4.295599E-1,6.6111E-1,-1.5866E-1,-9.473955E-2,3.244303E-2,-1.4157633E-1,-1.6393675E-1,-4.9223375E-2,8.397077E-2,-1.4089835E-1,1.404151E-1,-2.277973E-2,4.2659026E-2,-3.3015832E-2,1.1562121E-1,1.91701E-1,1.644908E-1,3.975045E-2,3.7523255E-2,1.9632772E-1,-9.34805E-3,5.9031796E-2],"split_indices":[0,0,1,0,1,1,0,0,0,0,1,0,0,1,0,1,0,1,1,0,0,0,1,0,1,1,1,0,1,0,0,0,0,0,0,0,1,0,1,1,0,0,0,0,0,0,0,0,0,0,0,0,0,0,0,0,0,0,0,0,0],"split_type":[0,0,0,0,0,0,0,0,0,0,0,0,0,0,0,0,0,0,0,0,0,0,0,0,0,0,0,0,0,0,0,0,0,0,0,0,0,0,0,0,0,0,0,0,0,0,0,0,0,0,0,0,0,0,0,0,0,0,0,0,0],"sum_hessian":[1.0598927E4,7.257516E3,3.341411E3,7.2101196E3,4.739654E1,1.4654106E3,1.8760001E3,6.1488564E3,1.0612631E3,2.7494781E1,1.990176E1,1.4543223E3,1.108847E1,2.7138712E2,1.6046129E3,4.2337208E1,1.01892584E3,1.1530699E1,8.37106E0,6.018255E0,5.0702147E0,1.7897812E1,2.5348932E2,1.1603036E3,4.4430945E2,3.0022924E1,1.2314285E1,9.806584E2,3.8267475E1,3.9625545E0,7.568145E0,4.8859525E0,3.4851081E0,5.771306E0,1.2126505E1,1.1475658E2,1.3873274E2,5.7577527E2,5.8452826E2,2.4375032E2,2.0055913E2,1.3886562E1,1.6136362E1,7.889743E0,4.424542E0,2.858646E1,9.681014E0,2.742958E0,3.0283482E0,8.88503E0,1.05871544E2,1.351787E2,3.5540385E0,8.87385E1,4.8703674E2,4.8469327E2,9.983501E1,1.3229605E2,1.1145426E2,1.1838409E2,8.217504E1],"tree_param":{"num_deleted":"0","num_feature":"2","num_nodes":"61","size_leaf_vector":"1"}},{"base_weights":[6.149074E-1,6.389061E-1,5.1672673E-1,1.9253851E-1,6.2184113E-1,6.3842547E-1,-1.5000643E-1,4.3220624E-1,6.28877E-1,1.9201449E-1,3.7150043E-1,1.3485721E-1,-2.719987E-1,1.894051E-1,3.152434E-1,1.9132254E-1,6.097983E-1,4.910406E-1,5.9108596E-2,3.6747712E-1,1.0124083E-1,-4.6683288E-1,-2.5073627E-2,-2.2333087E-1,3.6903313E-1,1.927227E-1,5.4816765E-1,2.7516493E-1,1.873801E-1,-2.276888E-2,4.8766142E-1,1.819584E-2,1.5815586E-1,7.702671E-2,-4.7460192E-1,-1.6423002E-1,2.0274635E-1,-1.3245432E-1,-1.6801795E-2,1.5499796E-1,5.481033E-2,-1.730087E-1,1.8817751E-1,1.4422534E-1,4.488059E-2,1.9386144E-1,7.8321934E-2,-5.022799E-3,1.9992974E-1,-1.3359638E-3,1.00249104E-1,-1.3411982E-1,1.21316604E-1,-9.5735766E-2,-1.4633276E-1,-7.601275E-2,4.4041242E-2,9.421392E-2,-3.972183E-2],"categories":[],"categories_nodes":[],"categories_segments":[],"categories_sizes":[],"default_left":[0,0,0,0,0,0,0,0,0,0,0,0,0,0,0,0,0,0,0,0,0,0,0,0,0,0,0,0,0,0,0,0,0,0,0,0,0,0,0,0,0,0,0,0,0,0,0,0,0,0,0,0,0,0,0,0,0,0,0],"id":11,"left_children":[1,3,5,-1,7,9,11,13,15,-1,17,19,21,-1,23,-1,25,27,-1,29,31,33,35,37,39,-1,41,43,-1,-1,45,47,49,51,53,55,57,-1,-1,-1,-1,-1,-1,-1,-1,-1,-1,-1,-1,-1,-1,-1,-1,-1,-1,-1,-1,-1,-1],"loss_changes":[7.120996E1,8.046875E-1,4.8443127E2,0E0,4.4833984E0,1.9487305E0,3.20832E1,2.845234E0,1.920166E-1,0E0,5.8915854E-1,2.13025E0,3.1066868E1,0E0,2.5255919E0,0E0,1.8833313E0,3.7149668E-1,0E0,1.8816371E0,1.1482942E0,1.5619965E0,9.099239E0,2.775941E-1,2.0251846E0,0E0,3.5210556E1,1.6016155E-1,0E0,0E0,8.145118E-1,2.2799125E0,4.1338186E0,1.2007661E0,5.737152E-1,4.9749594E0,4.103296E0,0E0,0E0,0E0,0E0,0E0,0E0,0E0,0E0,0E0,0E0,0E0,0E0,0E0,0E0,0E0,0E0,0E0,0E0,0E0,0E0,0E0,0E0],"parents":[2147483647,0,0,1,1,2,2,4,4,5,5,6,6,7,7,8,8,10,10,11,11,12,12,14,14,16,16,17,17,19,19,20,20,21,21,22,22,23,23,24,24,26,26,27,27,30,30,31,31,32,32,33,33,34,34,35,35,36,36],"right_children":[2,4,6,-1,8,10,12,14,16,-1,18,20,22,-1,24,-1,26,28,-1,30,32,34,36,38,40,-1,42,44,-1,-1,46,48,50,52,54,56,58,-1,-1,-1,-1,-1,-1,-1,-1,-1,-1,-1,-1,-1,-1,-1,-1,-1,-1,-1,-1,-1,-1],"split_conditions":[4.902669E-1,3.185239E-1,3.732407E-1,1.9253851E-1,3.2581437E-1,3.444423E-1,5.3537214E-1,7.245453E-1,4.4177082E-1,1.9201449E-1,7.1707267E-1,4.9874234E-1,6.267335E-1,1.894051E-1,7.3134905E-1,1.9132254E-1,-3.543802E-1,7.118462E-1,5.9108596E-2,6.198593E-1,5.0997895E-1,4.6466118E-1,4.6466118E-1,7.2823083E-1,7.365532E-1,1.927227E-1,6.1129874E-1,7.0158696E-1,1.873801E-1,-2.276888E-2,6.326234E-1,6.326234E-1,6.1129874E-1,4.295599E-1,5.498308E-1,6.8932086E-1,4.751882E-1,-1.3245432E-1,-1.6801795E-2,1.5499796E-1,5.481033E-2,-1.730087E-1,1.8817751E-1,1.4422534E-1,4.488059E-2,1.9386144E-1,7.8321934E-2,-5.022799E-3,1.9992974E-1,-1.3359638E-3,1.00249104E-1,-1.3411982E-1,1.21316604E-1,-9.5735766E-2,-1.4633276E-1,-7.601275E-2,4.4041242E-2,9.421392E-2,-3.972183E-2],"split_indices":[0,0,1,0,0,1,0,1,0,0,0,0,0,0,1,0,1,0,0,1,0,1,1,1,1,0,1,0,0,0,1,1,1,1,0,0,1,0,0,0,0,0,0,0,0,0,0,0,0,0,0,0,0,0,0,0,0,0,0],"split_type":[0,0,0,0,0,0,0,0,0,0,0,0,0,0,0,0,0,0,0,0,0,0,0,0,0,0,0,0,0,0,0,0,0,0,0,0,0,0,0,0,0,0,0,0,0,0,0,0,0,0,0,0,0,0,0,0,0,0,0],"sum_hessian":[3.036147E4,2.439338E4,5.96809E3,2.083044E4,3.5629404E3,5.046919E3,9.2117096E2,1.2969756E2,3.4332427E3,5.0150317E3,3.1887188E1,2.7617368E2,6.449973E2,4.6362186E1,8.3335365E1,2.3219473E3,1.1112954E3,1.784569E1,1.4041497E1,3.3617115E1,2.4255655E2,3.600289E2,2.8496838E2,7.281071E0,7.60543E1,7.205869E2,3.9070856E2,7.9905777E0,9.855113E0,7.247771E0,2.6369343E1,9.917278E1,1.4338377E2,4.9450336E0,3.550839E2,1.7708246E2,1.0788591E2,2.4490125E0,4.832059E0,4.1445305E1,3.460899E1,2.5253298E1,3.6545526E2,1.957222E0,6.0333557E0,1.4424594E1,1.194475E1,9.50253E1,4.1474795E0,7.503529E1,6.834847E1,1.7606478E0,3.1843858E0,2.9706135E1,3.2537775E2,1.3777888E2,3.9303566E1,8.103737E1,2.6848547E1],"tree_param":{"num_deleted":"0","num_feature":"2","num_nodes":"59","size_leaf_vector":"1"}},{"base_weights":[-3.7110093E-1,-5.435298E-1,-1.9076927E-2,-5.45338E-1,-2.7764675E-1,-5.4571664E-1,3.5012984E-1,-1.650374E-1,-5.172063E-1,-1.5983248E-1,4.3950893E-2,-1.6439864E-1,-2.4452022E-1,4.0189865E-1,9.533546E-2,-3.054403E-1,-5.262132E-1,1.9208087E-1,-1.493485E-1,-3.122272E-1,-3.8472585E-2,4.8851764E-1,1.964714E-1,1.261309E-1,-6.4800876E-1,-1.5278956E-1,-1.996137E-1,-1.6491954E-1,-5.06269E-1,2.1957902E-2,-3.6356694E-1,-4.5228224E-2,-1.203618E-1,4.1651574E-1,5.8191603E-1,3.210264E-1,4.1150164E-2,6.0989365E-2,5.836899E-1,-2.8381118E-1,2.261951E-1,7.064308E-2,-7.9553895E-2,2.9713878E-1,-1.6010648E-1,-1.3702747E-1,-4.9593825E-2,1.4749722E-1,3.6995303E-2,5.0564725E-2,1.8571547E-1,2.5693603E-2,1.7858815E-1,-8.409919E-3,4.177697E-2,2.2425687E-2,-1.1108556E-1,1.8708017E-1,-3.3513162E-2],"categories":[],"categories_nodes":[],"categories_segments":[],"categories_sizes":[],"default_left":[0,0,0,0,0,0,0,0,0,0,0,0,0,0,0,0,0,0,0,0,0,0,0,0,0,0,0,0,0,0,0,0,0,0,0,0,0,0,0,0,0,0,0,0,0,0,0,0,0,0,0,0,0,0,0,0,0,0,0],"id":12,"left_children":[1,3,5,7,9,11,13,-1,15,-1,17,-1,19,21,23,25,27,-1,29,31,-1,33,35,37,39,-1,41,-1,43,-1,45,-1,-1,47,49,51,53,55,57,-1,-1,-1,-1,-1,-1,-1,-1,-1,-1,-1,-1,-1,-1,-1,-1,-1,-1,-1,-1],"loss_changes":[5.577544E2,2.8138428E0,5.8782184E2,5.404053E-1,3.6087976E0,7.212219E-1,2.3404404E1,0E0,1.5699615E0,0E0,2.430347E0,0E0,4.783213E-2,2.6182495E1,6.982024E0,7.48374E-1,1.2927246E-1,0E0,7.944816E-1,3.0845702E-2,0E0,6.7389374E0,8.493027E0,8.616491E0,5.791648E0,0E0,8.4927225E-1,0E0,2.0344902E1,0E0,7.9218626E-2,0E0,0E0,1.2932014E1,6.794235E0,1.5692266E1,1.3398138E0,1.5425627E0,1.0704489E0,0E0,0E0,0E0,0E0,0E0,0E0,0E0,0E0,0E0,0E0,0E0,0E0,0E0,0E0,0E0,0E0,0E0,0E0,0E0,0E0],"parents":[2147483647,0,0,1,1,2,2,3,3,4,4,5,5,6,6,8,8,10,10,12,12,13,13,14,14,15,15,16,16,18,18,19,19,21,21,22,22,23,23,24,24,26,26,28,28,30,30,33,33,34,34,35,35,36,36,37,37,38,38],"right_children":[2,4,6,8,10,12,14,-1,16,-1,18,-1,20,22,24,26,28,-1,30,32,-1,34,36,38,40,-1,42,-1,44,-1,46,-1,-1,48,50,52,54,56,58,-1,-1,-1,-1,-1,-1,-1,-1,-1,-1,-1,-1,-1,-1,-1,-1,-1,-1,-1,-1],"split_conditions":[4.9874234E-1,4.902669E-1,3.732407E-1,3.185239E-1,6.056243E-1,3.444423E-1,5.9016156E-1,-1.650374E-1,3.2581437E-1,-1.5983248E-1,6.1129874E-1,-1.6439864E-1,7.1707267E-1,6.267335E-1,5.436073E-1,7.245453E-1,1.3140644E-1,1.9208087E-1,6.198593E-1,7.118462E-1,-3.8472585E-2,5.594131E-1,4.3652323E-1,5.3537214E-1,5.981794E-1,-1.5278956E-1,7.3134905E-1,-1.6491954E-1,5.5280674E-1,2.1957902E-2,6.326234E-1,-4.5228224E-2,-1.203618E-1,5.4070556E-1,5.498308E-1,4.295599E-1,6.6111E-1,5.293791E-1,5.981794E-1,-2.8381118E-1,2.261951E-1,7.064308E-2,-7.9553895E-2,2.9713878E-1,-1.6010648E-1,-1.3702747E-1,-4.9593825E-2,1.4749722E-1,3.6995303E-2,5.0564725E-2,1.8571547E-1,2.5693603E-2,1.7858815E-1,-8.409919E-3,4.177697E-2,2.2425687E-2,-1.1108556E-1,1.8708017E-1,-3.3513162E-2],"split_indices":[0,0,1,0,1,1,1,0,0,0,1,0,0,0,0,1,1,0,1,0,0,1,1,0,1,0,1,0,1,0,1,0,0,1,0,1,0,0,1,0,0,0,0,0,0,0,0,0,0,0,0,0,0,0,0,0,0,0,0],"split_type":[0,0,0,0,0,0,0,0,0,0,0,0,0,0,0,0,0,0,0,0,0,0,0,0,0,0,0,0,0,0,0,0,0,0,0,0,0,0,0,0,0,0,0,0,0,0,0,0,0,0,0,0,0,0,0,0,0,0,0],"sum_hessian":[9.188012E3,6.1668247E3,3.0211868E3,6.1241265E3,4.2698257E1,1.24493E3,1.7762568E3,5.217759E3,9.063674E2,2.3443518E1,1.9254738E1,1.2347686E3,1.0161492E1,1.4758236E3,3.0043323E2,3.8401672E1,8.679657E2,4.1475234E0,1.5107215E1,5.3570166E0,4.804476E0,1.0371346E3,4.386889E2,2.8927924E2,1.1154003E1,1.1819911E1,2.6581762E1,3.861031E2,4.8186264E2,7.7325535E0,7.3746614E0,2.8605075E0,2.496509E0,5.887329E2,4.4840173E2,2.4286447E2,1.9582445E2,2.5421988E2,3.5059353E1,9.466815E0,1.6871881E0,3.1417687E0,2.3439993E1,8.036772E0,4.7382587E2,4.129602E0,3.24506E0,4.68092E2,1.2064091E2,3.7418926E1,4.1098282E2,1.3140375E2,1.1146072E2,1.15259415E2,8.056503E1,2.4715916E2,7.0607243E0,3.3254074E1,1.8052781E0],"tree_param":{"num_deleted":"0","num_feature":"2","num_nodes":"59","size_leaf_vector":"1"}},{"base_weights":[5.761394E-1,5.992889E-1,4.8240602E-1,1.809074E-1,5.844089E-1,5.9832186E-1,-1.1295355E-1,1.8115208E-1,5.732975E-1,1.800636E-1,3.1855658E-1,1.2710205E-1,-2.2433731E-1,-1.2532309E0,5.8388346E-1,4.3931064E-1,4.5678575E-2,3.3005294E-1,9.927296E-2,2.1069713E-3,-4.2382658E-1,-6.3525116E-1,-6.029285E-1,1.21572986E-1,5.898061E-1,2.1782006E-1,1.7510475E-1,-5.6581788E-2,4.328472E-1,8.3304614E-2,4.2002213E-1,1.6283911E-1,-1.2814523E-1,-3.660854E-1,-4.9050063E-1,1.3393165E-1,-2.9502022E-1,1.5002972E-1,-2.3400417E-1,1.8013248E-1,1.728102E-1,1.3386223E-1,2.6834438E-2,-6.669845E-3,-1.9642005E-2,1.7932904E-1,6.342619E-2,3.4576025E-2,-8.692336E-2,2.1792592E-1,-1.6611233E-2,6.402528E-2,-4.417657E-2,-6.7729525E-2,4.354518E-2,-1.2918508E-1,-2.5648726E-2,-6.624701E-2,-1.624794E-1],"categories":[],"categories_nodes":[],"categories_segments":[],"categories_sizes":[],"default_left":[0,0,0,0,0,0,0,0,0,0,0,0,0,0,0,0,0,0,0,0,0,0,0,0,0,0,0,0,0,0,0,0,0,0,0,0,0,0,0,0,0,0,0,0,0,0,0,0,0,0,0,0,0,0,0,0,0,0,0],"id":13,"left_children":[1,3,5,-1,7,9,11,-1,13,-1,15,17,19,21,23,25,-1,27,29,31,33,-1,35,37,39,41,-1,43,45,47,49,51,53,55,57,-1,-1,-1,-1,-1,-1,-1,-1,-1,-1,-1,-1,-1,-1,-1,-1,-1,-1,-1,-1,-1,-1,-1,-1],"loss_changes":[5.8166992E1,8.491211E-1,3.6864746E2,0E0,5.966797E-1,2.1728516E0,2.3323784E1,0E0,5.483557E1,0E0,5.783479E-1,1.530376E0,2.6900145E1,7.964077E0,7.5474854E0,4.511521E-1,0E0,1.333808E0,1.2189336E0,5.880515E0,1.0392227E0,0E0,4.7430925E0,1.2832024E1,5.657959E-2,2.1608666E-1,0E0,9.276755E-4,8.281827E-1,2.8277574E0,1.6953197E0,2.003317E0,4.1723576E0,3.1065083E0,1.8644638E0,0E0,0E0,0E0,0E0,0E0,0E0,0E0,0E0,0E0,0E0,0E0,0E0,0E0,0E0,0E0,0E0,0E0,0E0,0E0,0E0,0E0,0E0,0E0,0E0],"parents":[2147483647,0,0,1,1,2,2,4,4,5,5,6,6,8,8,10,10,11,11,12,12,13,13,14,14,15,15,17,17,18,18,19,19,20,20,22,22,23,23,24,24,25,25,27,27,28,28,29,29,30,30,31,31,32,32,33,33,34,34],"right_children":[2,4,6,-1,8,10,12,-1,14,-1,16,18,20,22,24,26,-1,28,30,32,34,-1,36,38,40,42,-1,44,46,48,50,52,54,56,58,-1,-1,-1,-1,-1,-1,-1,-1,-1,-1,-1,-1,-1,-1,-1,-1,-1,-1,-1,-1,-1,-1,-1,-1],"split_conditions":[4.902669E-1,2.3116377E-1,3.732407E-1,1.809074E-1,1.3140644E-1,3.444423E-1,5.3537214E-1,1.8115208E-1,5.131966E-1,1.800636E-1,7.1707267E-1,4.9874234E-1,4.906242E-1,3.732407E-1,6.1129874E-1,7.118462E-1,4.5678575E-2,6.198593E-1,5.293791E-1,6.566572E-1,5.594131E-1,-6.3525116E-1,3.482761E-1,4.714707E-1,7.245453E-1,7.0158696E-1,1.7510475E-1,6.1129874E-1,6.326234E-1,5.260612E-1,6.056243E-1,4.751882E-1,6.8932086E-1,5.4070556E-1,5.498308E-1,1.3393165E-1,-2.9502022E-1,1.5002972E-1,-2.3400417E-1,1.8013248E-1,1.728102E-1,1.3386223E-1,2.6834438E-2,-6.669845E-3,-1.9642005E-2,1.7932904E-1,6.342619E-2,3.4576025E-2,-8.692336E-2,2.1792592E-1,-1.6611233E-2,6.402528E-2,-4.417657E-2,-6.7729525E-2,4.354518E-2,-1.2918508E-1,-2.5648726E-2,-6.624701E-2,-1.624794E-1],"split_indices":[0,0,1,0,1,1,0,0,1,0,0,0,1,1,1,0,0,1,0,0,1,0,0,0,1,0,0,1,1,0,1,1,0,1,0,0,0,0,0,0,0,0,0,0,0,0,0,0,0,0,0,0,0,0,0,0,0,0,0],"split_type":[0,0,0,0,0,0,0,0,0,0,0,0,0,0,0,0,0,0,0,0,0,0,0,0,0,0,0,0,0,0,0,0,0,0,0,0,0,0,0,0,0,0,0,0,0,0,0,0,0,0,0,0,0,0,0,0,0,0,0],"sum_hessian":[2.693927E4,2.1599432E4,5.3398394E3,1.7233314E4,4.366116E3,4.469607E3,8.702324E2,1.5689777E3,2.7971384E3,4.4384746E3,3.1132174E1,2.757632E2,5.9446924E2,1.5441538E1,2.7816968E3,1.708455E1,1.4047625E1,3.1943903E1,2.438193E2,2.7888763E2,3.1558157E2,5.6613016E0,9.780237E0,3.545732E1,2.7462395E3,7.731649E0,9.352901E0,6.803566E0,2.5140337E1,2.3345651E2,1.03628025E1,1.2472542E2,1.5416223E2,1.7259837E2,1.429832E2,2.5563297E0,7.223907E0,2.5286318E1,1.0171003E1,1.5255404E3,1.2206991E3,1.8911669E0,5.8404818E0,2.118815E0,4.684751E0,1.3434707E1,1.1705629E1,2.1567651E2,1.777999E1,5.980344E0,4.382458E0,1.07502754E2,1.7222666E1,1.1371702E2,4.044521E1,1.3989084E2,3.270753E1,2.3624004E1,1.193592E2],"tree_param":{"num_deleted":"0","num_feature":"2","num_nodes":"59","size_leaf_vector":"1"}},{"base_weights":[-3.565638E-1,-5.332064E-1,-2.219103E-2,-1.6158096E-1,-5.0159955E-1,-5.33233E-1,3.0729082E-1,-2.4808736E-1,-5.125445E-1,-1.6076498E-1,-2.0877412E-1,7.32318E-2,3.5051298E-1,-1.4778817E-1,-1.2499601E-1,-5.1674694E-1,-3.961615E-1,-2.7801907E-1,-2.972359E-2,4.0757132E-1,5.562127E-2,4.4263834E-1,1.8908693E-1,8.4821366E-2,-1.9020313E-1,-1.6142178E-1,-4.992463E-1,-1.5449761E-1,-8.441607E-2,-3.705774E-2,-1.1229405E-1,-5.187736E-2,1.9048095E-1,1.05475694E-1,-5.2441493E-2,5.0406945E-1,3.6358157E-1,2.21988E-1,-3.8689587E-2,-1.0918061E-1,-1.5831825E-3,1.5422924E-1,-1.5908024E-1,1.2183744E-1,-1.3667911E-1,1.7424701E-1,-1.2679164E-1,-1.3051511E-1,3.6792967E-2,-2.538535E-2,1.17554106E-1,9.713887E-2,1.7342971E-1,1.4025472E-1,-6.535765E-3,1.22618675E-1,3.1072112E-2,-2.7381513E-2,2.0521754E-1],"categories":[],"categories_nodes":[],"categories_segments":[],"categories_sizes":[],"default_left":[0,0,0,0,0,0,0,0,0,0,0,0,0,0,0,0,0,0,0,0,0,0,0,0,0,0,0,0,0,0,0,0,0,0,0,0,0,0,0,0,0,0,0,0,0,0,0,0,0,0,0,0,0,0,0,0,0,0,0],"id":14,"left_children":[1,3,5,-1,7,9,11,13,15,-1,17,19,21,-1,23,25,27,29,-1,31,33,35,37,-1,39,-1,41,-1,43,-1,-1,45,-1,47,49,51,53,55,57,-1,-1,-1,-1,-1,-1,-1,-1,-1,-1,-1,-1,-1,-1,-1,-1,-1,-1,-1,-1],"loss_changes":[4.7622363E2,6.2976074E-1,4.696335E2,0E0,2.0482178E0,8.282471E-1,1.7130478E1,9.734528E-1,1.6239929E-1,0E0,5.21833E-2,1.5412211E0,2.1200943E1,0E0,6.97518E-1,5.340576E-4,1.084333E0,4.125157E-2,0E0,1.4047785E0,1.3711247E0,4.2384796E0,3.91881E0,0E0,6.8792194E-1,0E0,1.3160118E1,0E0,1.9326452E0,0E0,0E0,1.482153E0,0E0,1.6660182E0,1.1866834E0,6.6158447E0,1.609977E1,1.0042582E1,2.5975256E0,0E0,0E0,0E0,0E0,0E0,0E0,0E0,0E0,0E0,0E0,0E0,0E0,0E0,0E0,0E0,0E0,0E0,0E0,0E0,0E0],"parents":[2147483647,0,0,1,1,2,2,4,4,5,5,6,6,7,7,8,8,10,10,11,11,12,12,14,14,15,15,16,16,17,17,19,19,20,20,21,21,22,22,24,24,26,26,28,28,31,31,33,33,34,34,35,35,36,36,37,37,38,38],"right_children":[2,4,6,-1,8,10,12,14,16,-1,18,20,22,-1,24,26,28,30,-1,32,34,36,38,-1,40,-1,42,-1,44,-1,-1,46,-1,48,50,52,54,56,58,-1,-1,-1,-1,-1,-1,-1,-1,-1,-1,-1,-1,-1,-1,-1,-1,-1,-1,-1,-1],"split_conditions":[4.902669E-1,3.185239E-1,3.732407E-1,-1.6158096E-1,3.2581437E-1,3.444423E-1,5.260612E-1,7.245453E-1,4.8558033E-1,-1.6076498E-1,7.1707267E-1,5.804999E-1,6.1643165E-1,-1.4778817E-1,7.3134905E-1,1.3140644E-1,-5.4349536E-1,7.118462E-1,-2.972359E-2,5.1360923E-1,5.0997895E-1,5.7574004E-1,6.840018E-1,8.4821366E-2,7.365532E-1,-1.6142178E-1,5.981794E-1,-1.5449761E-1,6.1129874E-1,-3.705774E-2,-1.1229405E-1,5.0997895E-1,1.9048095E-1,5.981794E-1,6.2509066E-1,5.5610263E-1,5.4070556E-1,4.3652323E-1,4.295599E-1,-1.0918061E-1,-1.5831825E-3,1.5422924E-1,-1.5908024E-1,1.2183744E-1,-1.3667911E-1,1.7424701E-1,-1.2679164E-1,-1.3051511E-1,3.6792967E-2,-2.538535E-2,1.17554106E-1,9.713887E-2,1.7342971E-1,1.4025472E-1,-6.535765E-3,1.22618675E-1,3.1072112E-2,-2.7381513E-2,2.0521754E-1],"split_indices":[0,0,1,0,0,1,0,1,0,0,0,1,0,0,1,1,1,0,0,0,0,0,0,0,1,0,1,0,1,0,0,0,0,1,1,0,1,1,1,0,0,0,0,0,0,0,0,0,0,0,0,0,0,0,0,0,0,0,0],"split_type":[0,0,0,0,0,0,0,0,0,0,0,0,0,0,0,0,0,0,0,0,0,0,0,0,0,0,0,0,0,0,0,0,0,0,0,0,0,0,0,0,0,0,0,0,0,0,0,0,0,0,0,0,0,0,0,0,0,0,0],"sum_hessian":[8.061978E3,5.2748066E3,2.7871714E3,4.4917974E3,7.8300916E2,1.0923174E3,1.6948541E3,3.338551E1,7.4962366E2,1.0828209E3,9.496386E0,2.6461115E2,1.430243E3,1.0173054E1,2.3212456E1,7.201793E2,2.9444351E1,4.8808813E0,4.6155043E0,1.2132352E1,2.5247879E2,9.094695E2,5.2077356E2,2.7404826E0,2.0471973E1,3.1120688E2,4.0897244E2,2.0846252E1,8.598098E0,2.7506204E0,2.1302607E0,4.2718444E0,7.860508E0,1.7278766E2,7.9691124E1,5.087606E2,4.007089E2,4.55067E2,6.570655E1,1.005634E1,1.0415633E1,1.1685302E1,3.9728714E2,3.6630225E0,4.9350753E0,1.3690335E0,2.9028108E0,4.569632E0,1.6821803E2,7.506435E1,4.6267796E0,1.4966866E2,3.5909195E2,3.154251E2,8.52838E1,1.7563565E2,2.7943137E2,6.2064857E1,3.6416914E0],"tree_param":{"num_deleted":"0","num_feature":"2","num_nodes":"59","size_leaf_vector":"1"}},{"base_weights":[5.480383E-1,5.717319E-1,4.5382956E-1,1.7254592E-1,5.5181736E-1,5.697774E-1,-8.319512E-2,3.044957E-1,5.624446E-1,5.720138E-1,2.7692783E-1,1.2312005E-1,-1.8599339E-1,4.1966888E-1,2.9126802E-2,1.7281893E-1,5.5104333E-1,1.7270698E-1,5.385951E-1,4.0050036E-1,3.5047673E-2,1.6173445E-1,1.4747947E-2,1.8841863E-2,-3.8684267E-1,1.6909978E-1,2.9243264E-1,-2.4940489E-1,1.6848105E-1,-2.1346739E-1,5.666794E-1,3.4085536E-1,1.6643962E-1,1.8960257E-1,1.6460882E-1,2.631255E-1,1.0016842E-1,-5.3870007E-2,3.809864E-1,-8.022919E-2,1.7194885E-1,-4.5141014E-1,-3.0741823E-1,-8.7888025E-2,1.2468182E-1,-1.04546234E-1,-1.1242429E-2,1.2557627E-1,-1.2433897E-1,5.7095677E-2,1.7020516E-1,7.311378E-2,1.5631938E-1,1.2848513E-1,1.8148625E-2,-3.234966E-2,9.9249184E-2,6.5417185E-2,-2.215786E-2,5.7755243E-3,-7.480769E-2,1.9747408E-1,-2.8261304E-2,-4.5760944E-2,4.12781E-2,-1.09448604E-1,6.3555084E-2,-1.4966066E-1,-6.325901E-2,-1.1889719E-1,2.4534683E-1],"categories":[],"categories_nodes":[],"categories_segments":[],"categories_sizes":[],"default_left":[0,0,0,0,0,0,0,0,0,0,0,0,0,0,0,0,0,0,0,0,0,0,0,0,0,0,0,0,0,0,0,0,0,0,0,0,0,0,0,0,0,0,0,0,0,0,0,0,0,0,0,0,0,0,0,0,0,0,0,0,0,0,0,0,0,0,0,0,0,0,0],"id":15,"left_children":[1,3,5,-1,7,9,11,13,15,17,19,21,23,25,27,-1,29,-1,31,33,-1,35,37,39,41,-1,43,45,-1,47,49,51,-1,53,-1,55,57,59,61,63,65,67,69,-1,-1,-1,-1,-1,-1,-1,-1,-1,-1,-1,-1,-1,-1,-1,-1,-1,-1,-1,-1,-1,-1,-1,-1,-1,-1,-1,-1],"loss_changes":[5.185791E1,9.5410156E-1,2.9251318E2,0E0,7.0809326E0,2.371582E0,1.7730389E1,3.6622057E0,9.307861E-2,1.6088867E-1,5.7078576E-1,1.1620488E0,2.2949675E1,1.3304987E0,5.3668065E0,0E0,1.7602081E1,0E0,1.077652E0,4.3371725E-1,0E0,1.2536616E0,1.8852283E0,4.2160716E0,1.305397E0,0E0,3.3958733E0,4.8735225E-1,0E0,3.989255E0,2.539978E-1,4.4259715E-1,0E0,2.3998863E-1,0E0,1.9659953E0,2.6667757E0,9.1062E-1,1.620941E0,2.6809356E0,2.4152257E0,1.6437378E0,1.3270631E1,0E0,0E0,0E0,0E0,0E0,0E0,0E0,0E0,0E0,0E0,0E0,0E0,0E0,0E0,0E0,0E0,0E0,0E0,0E0,0E0,0E0,0E0,0E0,0E0,0E0,0E0,0E0,0E0],"parents":[2147483647,0,0,1,1,2,2,4,4,5,5,6,6,7,7,8,8,9,9,10,10,11,11,12,12,13,13,14,14,16,16,18,18,19,19,21,21,22,22,23,23,24,24,26,26,27,27,29,29,30,30,31,31,33,33,35,35,36,36,37,37,38,38,39,39,40,40,41,41,42,42],"right_children":[2,4,6,-1,8,10,12,14,16,18,20,22,24,26,28,-1,30,-1,32,34,-1,36,38,40,42,-1,44,46,-1,48,50,52,-1,54,-1,56,58,60,62,64,66,68,70,-1,-1,-1,-1,-1,-1,-1,-1,-1,-1,-1,-1,-1,-1,-1,-1,-1,-1,-1,-1,-1,-1,-1,-1,-1,-1,-1,-1],"split_conditions":[4.902669E-1,3.185239E-1,3.732407E-1,1.7254592E-1,3.2581437E-1,3.444423E-1,5.3537214E-1,7.365532E-1,1.3140644E-1,1.760116E-1,7.1707267E-1,5.1989836E-1,4.906242E-1,7.245453E-1,7.40376E-1,1.7281893E-1,6.056243E-1,1.7270698E-1,2.0855418E-1,7.118462E-1,3.5047673E-2,6.198593E-1,5.293791E-1,4.6466118E-1,5.845585E-1,1.6909978E-1,7.3134905E-1,7.386198E-1,1.6848105E-1,3.9448205E-1,6.1129874E-1,7.821208E-1,1.6643962E-1,7.0158696E-1,1.6460882E-1,5.047319E-1,5.047319E-1,5.260612E-1,6.056243E-1,6.8932086E-1,6.3755095E-1,5.804999E-1,5.4070556E-1,-8.7888025E-2,1.2468182E-1,-1.04546234E-1,-1.1242429E-2,1.2557627E-1,-1.2433897E-1,5.7095677E-2,1.7020516E-1,7.311378E-2,1.5631938E-1,1.2848513E-1,1.8148625E-2,-3.234966E-2,9.9249184E-2,6.5417185E-2,-2.215786E-2,5.7755243E-3,-7.480769E-2,1.9747408E-1,-2.8261304E-2,-4.5760944E-2,4.12781E-2,-1.09448604E-1,6.3555084E-2,-1.4966066E-1,-6.325901E-2,-1.1889719E-1,2.4534683E-1],"split_indices":[0,0,1,0,0,1,0,1,1,1,0,0,1,1,1,0,1,0,1,0,0,1,0,1,0,0,1,1,0,0,1,0,0,0,0,0,0,0,1,0,0,1,1,0,0,0,0,0,0,0,0,0,0,0,0,0,0,0,0,0,0,0,0,0,0,0,0,0,0,0,0],"split_type":[0,0,0,0,0,0,0,0,0,0,0,0,0,0,0,0,0,0,0,0,0,0,0,0,0,0,0,0,0,0,0,0,0,0,0,0,0,0,0,0,0,0,0,0,0,0,0,0,0,0,0,0,0,0,0,0,0,0,0,0,0,0,0,0,0,0,0,0,0,0,0],"sum_hessian":[2.3347566E4,1.8651594E4,4.695973E3,1.5893384E4,2.7582092E3,3.8620623E3,8.3391064E2,1.1485736E2,2.6433518E3,3.831847E3,3.0215477E1,2.7725824E2,5.566524E2,8.061575E1,3.4241604E1,1.1819895E3,1.4613623E3,3.4374902E3,3.9435654E2,1.6205769E1,1.4009707E1,2.0405748E2,7.320075E1,2.760402E2,2.8061218E2,3.620801E1,4.4407745E1,2.2830748E1,1.1410856E1,2.9035849E1,1.4323264E3,3.1536644E1,3.628199E2,7.6287193E0,8.577049E0,7.585708E1,1.2820041E2,6.23684E1,1.0832352E1,1.6788362E2,1.08156586E2,1.5219937E2,1.2841283E2,7.4799895E0,3.6927757E1,1.5118246E1,7.7125015E0,6.7444777E0,2.229137E1,3.0559704E0,1.4292705E3,2.2019367E1,9.517277E0,1.864512E0,5.7642074E0,1.1616629E1,6.424045E1,7.627661E1,5.1923794E1,4.604645E1,1.6321947E1,6.5976067E0,4.234745E0,1.2626808E2,4.1615536E1,6.920098E0,1.0123649E2,1.262224E2,2.5976976E1,1.1961016E2,8.802658E0],"tree_param":{"num_deleted":"0","num_feature":"2","num_nodes":"71","size_leaf_vector":"1"}},{"base_weights":[-3.4533265E-1,-5.235842E-1,-2.5732333E-2,-1.5886247E-1,-4.889425E-1,-5.228324E-1,2.681676E-1,-2.243216E-1,-5.011993E-1,-1.577829E-1,-1.7828856E-1,3.086265E-1,7.3830515E-2,-1.4343792E-1,-1.0737045E-1,-1.5874329E-1,-4.7778013E-1,-2.4780172E-1,-2.2760117E-2,4.1606104E-1,1.693458E-1,6.68956E-2,2.0690738E-1,-3.72256E-2,-1.2530035E-1,3.5085833E-1,-1.5551242E-1,-3.0216506E-2,-1.0512148E-1,4.7643936E-1,3.2536954E-1,1.3117541E-1,3.4778452E-1,7.8694634E-2,-2.833565E-1,-5.767606E-2,6.457055E-2,2.3804636E-1,1.948146E-2,1.6002245E-1,7.037273E-2,1.3924997E-1,-6.370508E-3,7.499813E-2,4.408213E-3,1.4189945E-1,1.9671164E-2,4.5405827E-2,1.0921847E-2,-1.3266562E-1,5.451975E-2],"categories":[],"categories_nodes":[],"categories_segments":[],"categories_sizes":[],"default_left":[0,0,0,0,0,0,0,0,0,0,0,0,0,0,0,0,0,0,0,0,0,0,0,0,0,0,0,0,0,0,0,0,0,0,0,0,0,0,0,0,0,0,0,0,0,0,0,0,0,0,0],"id":16,"left_children":[1,3,5,-1,7,9,11,13,15,-1,17,19,21,-1,23,-1,25,27,-1,29,31,33,-1,35,-1,37,-1,-1,-1,39,41,43,45,47,49,-1,-1,-1,-1,-1,-1,-1,-1,-1,-1,-1,-1,-1,-1,-1,-1],"loss_changes":[4.0530597E2,6.834717E-1,3.724569E2,0E0,2.1035614E0,9.213867E-1,1.2574753E1,9.0015733E-1,1.7399597E-1,0E0,5.230993E-2,1.9768204E1,1.1386108E0,0E0,4.901465E-1,0E0,1.2463959E1,4.7834963E-2,0E0,3.939682E0,3.898119E0,1.1604928E0,0E0,8.2601225E-1,0E0,2.181967E0,0E0,0E0,0E0,6.0306473E0,1.4539362E1,6.620084E0,3.5531416E0,8.15559E-1,7.595912E-1,0E0,0E0,0E0,0E0,0E0,0E0,0E0,0E0,0E0,0E0,0E0,0E0,0E0,0E0,0E0,0E0],"parents":[2147483647,0,0,1,1,2,2,4,4,5,5,6,6,7,7,8,8,10,10,11,11,12,12,14,14,16,16,17,17,19,19,20,20,21,21,23,23,25,25,29,29,30,30,31,31,32,32,33,33,34,34],"right_children":[2,4,6,-1,8,10,12,14,16,-1,18,20,22,-1,24,-1,26,28,-1,30,32,34,-1,36,-1,38,-1,-1,-1,40,42,44,46,48,50,-1,-1,-1,-1,-1,-1,-1,-1,-1,-1,-1,-1,-1,-1,-1,-1],"split_conditions":[4.902669E-1,3.185239E-1,3.732407E-1,-1.5886247E-1,3.2581437E-1,3.444423E-1,5.981794E-1,7.245453E-1,1.3140644E-1,-1.577829E-1,7.1707267E-1,6.128071E-1,5.401165E-1,-1.4343792E-1,7.40376E-1,-1.5874329E-1,6.1129874E-1,7.118462E-1,-2.2760117E-2,5.7574004E-1,5.131966E-1,5.293791E-1,2.0690738E-1,7.365532E-1,-1.2530035E-1,5.177325E-1,-1.5551242E-1,-3.0216506E-2,-1.0512148E-1,5.804999E-1,5.4070556E-1,4.3652323E-1,5.177325E-1,5.047319E-1,6.056243E-1,-5.767606E-2,6.457055E-2,2.3804636E-1,1.948146E-2,1.6002245E-1,7.037273E-2,1.3924997E-1,-6.370508E-3,7.499813E-2,4.408213E-3,1.4189945E-1,1.9671164E-2,4.5405827E-2,1.0921847E-2,-1.3266562E-1,5.451975E-2],"split_indices":[0,0,1,0,0,1,1,1,1,0,0,0,0,0,1,0,1,0,0,0,1,0,0,1,0,1,0,0,0,1,1,1,1,0,1,0,0,0,0,0,0,0,0,0,0,0,0,0,0,0,0],"split_type":[0,0,0,0,0,0,0,0,0,0,0,0,0,0,0,0,0,0,0,0,0,0,0,0,0,0,0,0,0,0,0,0,0,0,0,0,0,0,0,0,0,0,0,0,0,0,0,0,0,0,0],"sum_hessian":[7.113704E3,4.566294E3,2.5474097E3,3.8840625E3,6.8223175E2,9.4621313E2,1.6011965E3,3.1055447E1,6.5117633E2,9.372253E2,8.987853E0,1.3247993E3,2.7639728E2,8.821963E0,2.2233482E1,2.870539E2,3.6412244E2,4.5085106E0,4.479343E0,7.4678076E2,5.7801855E2,2.7441583E2,1.9814458E0,1.9047607E1,3.1858752E0,1.6648178E1,3.4747424E2,2.667029E0,1.8414814E0,4.4576025E2,3.0102048E2,4.7759076E2,1.00427795E2,2.662228E2,8.193004E0,1.1948751E1,7.098857E0,5.836914E0,1.0811265E1,3.5980582E2,8.5954445E1,2.147037E2,8.631678E1,2.3585626E2,2.417345E2,6.909533E1,3.1332472E1,9.699369E1,1.6922913E2,6.1436634E0,2.0493405E0],"tree_param":{"num_deleted":"0","num_feature":"2","num_nodes":"51","size_leaf_vector":"1"}},{"base_weights":[5.265392E-1,5.516895E-1,4.290575E-1,1.6663168E-1,5.300356E-1,5.488521E-1,-5.7556394E-2,2.8443438E-1,5.414437E-1,5.515363E-1,2.4201809E-1,1.2468269E-1,-1.536991E-1,1.6270974E-1,1.7096291E-1,1.6687104E-1,5.291255E-1,1.668333E-1,5.1022357E-1,3.6776876E-1,2.6706642E-2,1.0976012E-1,4.3373522E-1,2.7357316E-2,-3.7404296E-1,9.57228E-2,1.6488644E-1,-6.2252175E-2,5.4461735E-1,2.796242E-1,5.295674E-1,1.6695835E-1,1.5633321E-1,1.5484391E-1,-4.1800816E-2,6.7839515E-1,-4.2359024E-2,1.2217458E-1,-6.915506E-2,-3.9122716E-1,-8.234069E-2,7.7532224E-2,-6.164839E-2,4.4795364E-2,-1.8011056E-1,1.6504712E-1,1.4765452E-1,5.0277773E-2,1.487183E-1,1.4227934E-1,1.6615972E-1,1.238558E-1,1.1379885E-2,9.043845E-2,3.8326945E-2,1.8753448E-3,-5.4668922E-2,-9.3188286E-2,2.7018222E-1,-1.8677862E-1,1.9100784E-1,5.928914E-2,-4.0286005E-2,-5.5460177E-2,1.5653754E-2,-9.402872E-2,-1.4649484E-1,-1.0269067E-1,1.4331828E-1],"categories":[],"categories_nodes":[],"categories_segments":[],"categories_sizes":[],"default_left":[0,0,0,0,0,0,0,0,0,0,0,0,0,0,0,0,0,0,0,0,0,0,0,0,0,0,0,0,0,0,0,0,0,0,0,0,0,0,0,0,0,0,0,0,0,0,0,0,0,0,0,0,0,0,0,0,0,0,0,0,0,0,0,0,0,0,0,0,0],"id":17,"left_children":[1,3,5,-1,7,9,11,13,15,17,19,21,23,-1,25,-1,27,-1,29,31,-1,33,35,37,39,41,-1,43,45,47,49,51,-1,53,55,57,59,61,63,65,67,-1,-1,-1,-1,-1,-1,-1,-1,-1,-1,-1,-1,-1,-1,-1,-1,-1,-1,-1,-1,-1,-1,-1,-1,-1,-1,-1,-1],"loss_changes":[4.8572266E1,9.902344E-1,2.3830334E2,0E0,6.4503174E0,2.5680542E0,1.4182554E1,3.0311441E0,1.1584473E-1,3.3062744E-1,5.4881585E-1,1.2424793E0,2.1139885E1,0E0,2.100819E0,0E0,1.147641E1,0E0,1.3516159E0,4.14042E-1,0E0,1.8389754E0,1.4901006E0,2.677525E0,1.1656494E0,3.203024E0,0E0,3.8216777E0,8.276367E-2,5.981662E-1,1.5263367E-1,2.5454694E-1,0E0,7.8324175E-1,4.2135197E-1,2.1139736E0,2.445234E0,2.8806553E0,2.047967E0,1.5495148E0,2.283545E0,0E0,0E0,0E0,0E0,0E0,0E0,0E0,0E0,0E0,0E0,0E0,0E0,0E0,0E0,0E0,0E0,0E0,0E0,0E0,0E0,0E0,0E0,0E0,0E0,0E0,0E0,0E0,0E0],"parents":[2147483647,0,0,1,1,2,2,4,4,5,5,6,6,7,7,8,8,9,9,10,10,11,11,12,12,14,14,16,16,18,18,19,19,21,21,22,22,23,23,24,24,25,25,27,27,28,28,29,29,30,30,31,31,33,33,34,34,35,35,36,36,37,37,38,38,39,39,40,40],"right_children":[2,4,6,-1,8,10,12,14,16,18,20,22,24,-1,26,-1,28,-1,30,32,-1,34,36,38,40,42,-1,44,46,48,50,52,-1,54,56,58,60,62,64,66,68,-1,-1,-1,-1,-1,-1,-1,-1,-1,-1,-1,-1,-1,-1,-1,-1,-1,-1,-1,-1,-1,-1,-1,-1,-1,-1,-1,-1],"split_conditions":[4.902669E-1,3.185239E-1,3.732407E-1,1.6663168E-1,3.2581437E-1,3.444423E-1,5.3537214E-1,7.245453E-1,1.3140644E-1,1.760116E-1,7.1707267E-1,5.293791E-1,5.0804853E-1,1.6270974E-1,7.40376E-1,1.6687104E-1,6.1129874E-1,1.668333E-1,2.0855418E-1,7.118462E-1,2.6706642E-2,5.1989836E-1,6.056243E-1,6.566572E-1,5.9016156E-1,7.365532E-1,1.6488644E-1,4.714707E-1,7.245453E-1,7.821208E-1,2.5475803E-1,7.0158696E-1,1.5633321E-1,4.9874234E-1,5.260612E-1,5.9016156E-1,6.1129874E-1,4.751882E-1,6.7758405E-1,5.594131E-1,5.436073E-1,7.7532224E-2,-6.164839E-2,4.4795364E-2,-1.8011056E-1,1.6504712E-1,1.4765452E-1,5.0277773E-2,1.487183E-1,1.4227934E-1,1.6615972E-1,1.238558E-1,1.1379885E-2,9.043845E-2,3.8326945E-2,1.8753448E-3,-5.4668922E-2,-9.3188286E-2,2.7018222E-1,-1.8677862E-1,1.9100784E-1,5.928914E-2,-4.0286005E-2,-5.5460177E-2,1.5653754E-2,-9.402872E-2,-1.4649484E-1,-1.0269067E-1,1.4331828E-1],"split_indices":[0,0,1,0,0,1,0,1,1,1,0,0,1,0,1,0,1,0,1,0,0,0,1,0,1,1,0,0,1,0,1,0,0,0,0,1,1,1,0,1,0,0,0,0,0,0,0,0,0,0,0,0,0,0,0,0,0,0,0,0,0,0,0,0,0,0,0,0,0],"split_type":[0,0,0,0,0,0,0,0,0,0,0,0,0,0,0,0,0,0,0,0,0,0,0,0,0,0,0,0,0,0,0,0,0,0,0,0,0,0,0,0,0,0,0,0,0,0,0,0,0,0,0,0,0,0,0,0,0,0,0,0,0,0,0,0,0,0,0,0,0],"sum_hessian":[1.9907248E4,1.5820813E4,4.086435E3,1.3464698E4,2.3561155E3,3.2790667E3,8.0736847E2,1.0573377E2,2.2503816E3,3.249839E3,2.922742E1,2.787325E2,5.28636E2,3.114912E1,7.4584656E1,1.0024131E3,1.2479686E3,2.914635E3,3.3520422E2,1.5271591E1,1.395583E1,2.6718658E2,1.1545923E1,2.9066916E2,2.3796683E2,6.3266323E1,1.1318333E1,3.1780458E1,1.2161881E3,2.7138565E1,3.0806564E2,7.5167513E0,7.7548394E0,2.0591331E2,6.1273273E1,7.3459806E0,4.1999426E0,1.4648805E2,1.4418109E2,2.2440588E2,1.3560943E1,4.1168873E1,2.2097448E1,2.3330265E1,8.450193E0,1.0913925E3,1.2479565E2,1.9042261E1,8.096303E0,1.0030037E2,2.0776527E2,1.8297906E0,5.6869607E0,3.0530434E1,1.7538287E2,4.6363945E1,1.4909329E1,1.2746918E0,6.071289E0,2.3095865E0,1.8903561E0,1.1336367E2,3.312439E1,7.35323E1,7.064879E1,1.2692678E2,9.74791E1,9.527483E0,4.0334597E0],"tree_param":{"num_deleted":"0","num_feature":"2","num_nodes":"69","size_leaf_vector":"1"}},{"base_weights":[-3.3475727E-1,-5.154974E-1,-2.8700795E-2,-1.5669934E-1,-4.7615698E-1,-5.139181E-1,2.3400949E-1,-2.030928E-1,-4.8980495E-1,-5.175543E-1,-1.523626E-1,2.8109843E-1,1.1257044E-1,-1.3944219E-1,-9.3062766E-2,-1.5660739E-1,-4.6312737E-1,-1.5699145E-1,-4.6303067E-1,-2.20953E-1,-1.7296996E-2,3.6770248E-1,1.0536267E-1,2.1164769E-1,-1.2881085E-2,7.8939445E-2,-1.5612127E-1,6.388121E-1,-4.9422348E-1,-1.874084E-1,-1.4618486E-1,-2.454902E-2,-9.856722E-2,5.0631034E-1,2.6154345E-1,1.2841317E-1,-9.554987E-2,-7.0769135E-3,4.9069E-1,-2.235508E-2,1.7889065E-1,-8.889611E-2,-6.889831E-3,-1.3586459E-2,2.4192421E-1,-7.7396096E-3,-1.5222174E-1,-2.3973156E-2,-1.0626886E-1,8.0501966E-2,1.6534755E-1,1.025697E-1,-2.4726823E-2,2.2350226E-2,1.601256E-1,-1.2568106E-1,7.913508E-2,9.384922E-2,-4.2462204E-2,1.362343E-1,1.8745555E-1,-4.093848E-3,-1.629011E-1],"categories":[],"categories_nodes":[],"categories_segments":[],"categories_sizes":[],"default_left":[0,0,0,0,0,0,0,0,0,0,0,0,0,0,0,0,0,0,0,0,0,0,0,0,0,0,0,0,0,0,0,0,0,0,0,0,0,0,0,0,0,0,0,0,0,0,0,0,0,0,0,0,0,0,0,0,0,0,0,0,0,0,0],"id":18,"left_children":[1,3,5,-1,7,9,11,13,15,17,19,21,23,-1,25,-1,27,-1,29,31,-1,33,35,37,39,-1,41,43,45,47,-1,-1,-1,49,51,53,55,57,59,61,-1,-1,-1,-1,-1,-1,-1,-1,-1,-1,-1,-1,-1,-1,-1,-1,-1,-1,-1,-1,-1,-1,-1],"loss_changes":[3.47761E2,8.1396484E-1,2.9780777E2,0E0,2.1228333E0,9.999695E-1,8.635933E0,8.2333195E-1,2.4577332E-1,1.2283325E-2,4.954292E-2,1.6573936E1,5.287479E0,0E0,5.450336E-1,0E0,1.1251961E1,0E0,4.8456192E-1,5.1072598E-2,0E0,1.0620918E1,1.6875558E0,1.4506256E1,1.1015944E0,0E0,3.607669E-1,1.090838E0,1.9070663E0,1.2578201E-1,0E0,0E0,0E0,3.223465E0,1.1523758E1,7.0610757E0,4.5035257E0,5.8167214E0,2.2867966E-1,8.3885956E-1,0E0,0E0,0E0,0E0,0E0,0E0,0E0,0E0,0E0,0E0,0E0,0E0,0E0,0E0,0E0,0E0,0E0,0E0,0E0,0E0,0E0,0E0,0E0],"parents":[2147483647,0,0,1,1,2,2,4,4,5,5,6,6,7,7,8,8,9,9,10,10,11,11,12,12,14,14,16,16,18,18,19,19,21,21,22,22,23,23,24,24,26,26,27,27,28,28,29,29,33,33,34,34,35,35,36,36,37,37,38,38,39,39],"right_children":[2,4,6,-1,8,10,12,14,16,18,20,22,24,-1,26,-1,28,-1,30,32,-1,34,36,38,40,-1,42,44,46,48,-1,-1,-1,50,52,54,56,58,60,62,-1,-1,-1,-1,-1,-1,-1,-1,-1,-1,-1,-1,-1,-1,-1,-1,-1,-1,-1,-1,-1,-1,-1],"split_conditions":[4.902669E-1,3.185239E-1,3.732407E-1,-1.5669934E-1,3.2581437E-1,3.444423E-1,6.267335E-1,7.245453E-1,1.3140644E-1,1.760116E-1,7.1707267E-1,5.804999E-1,4.3652323E-1,-1.3944219E-1,7.3134905E-1,-1.5660739E-1,5.5280674E-1,-1.5699145E-1,2.0855418E-1,7.118462E-1,-1.7296996E-2,5.7574004E-1,5.436073E-1,4.295599E-1,6.840018E-1,7.8939445E-2,7.365532E-1,3.81877E-1,6.1129874E-1,7.821208E-1,-1.4618486E-1,-2.454902E-2,-9.856722E-2,5.5610263E-1,5.4070556E-1,5.3537214E-1,5.498308E-1,6.7272013E-1,6.7758405E-1,5.131966E-1,1.7889065E-1,-8.889611E-2,-6.889831E-3,-1.3586459E-2,2.4192421E-1,-7.7396096E-3,-1.5222174E-1,-2.3973156E-2,-1.0626886E-1,8.0501966E-2,1.6534755E-1,1.025697E-1,-2.4726823E-2,2.2350226E-2,1.601256E-1,-1.2568106E-1,7.913508E-2,9.384922E-2,-4.2462204E-2,1.362343E-1,1.8745555E-1,-4.093848E-3,-1.629011E-1],"split_indices":[0,0,1,0,0,1,0,1,1,1,0,1,1,0,1,0,1,0,1,0,0,0,0,1,0,0,1,0,1,0,0,0,0,0,1,0,0,0,0,1,0,0,0,0,0,0,0,0,0,0,0,0,0,0,0,0,0,0,0,0,0,0,0],"split_type":[0,0,0,0,0,0,0,0,0,0,0,0,0,0,0,0,0,0,0,0,0,0,0,0,0,0,0,0,0,0,0,0,0,0,0,0,0,0,0,0,0,0,0,0,0,0,0,0,0,0,0,0,0,0,0,0,0,0,0,0,0,0,0],"sum_hessian":[6.2859966E3,3.951672E3,2.3343245E3,3.356365E3,5.953071E2,8.1959784E2,1.5147266E3,2.9093578E1,5.6621356E2,8.1100995E2,8.587917E0,1.0905447E3,4.2418195E2,7.6568446E0,2.1436733E1,2.4805666E2,3.181569E2,7.258573E2,8.515268E1,4.2075634E0,4.3803544E0,7.2980054E2,3.6074414E2,2.3662035E2,1.8756158E2,2.7470195E0,1.8689714E1,8.195438E0,3.0996146E2,7.5925035E0,7.756017E1,2.6028194E0,1.604744E0,3.1489056E2,4.1490997E2,3.239397E2,3.6804432E1,1.3319298E2,1.0342737E2,1.8563786E2,1.9237292E0,8.507154E0,1.0182559E1,1.7563472E0,6.4390917E0,8.565028E0,3.0139642E2,5.5166483E0,2.075855E0,5.104139E1,2.6384915E2,3.3634164E2,7.856832E1,2.869566E2,3.69831E1,1.9283823E1,1.7520609E1,3.902372E1,9.416925E1,8.471648E1,1.8710894E1,1.835931E2,2.0447626E0],"tree_param":{"num_deleted":"0","num_feature":"2","num_nodes":"63","size_leaf_vector":"1"}},{"base_weights":[5.092949E-1,5.3667563E-1,4.0668148E-1,1.6231248E-1,5.1172566E-1,5.361763E-1,-2.4217885E-2,2.5833422E-1,5.247436E-1,1.6257143E-1,4.8484558E-1,1.269036E-1,-1.0412652E-1,1.5771091E-1,1.5373139E-1,5.282995E-1,4.6004924E-1,2.1703035E-1,5.080242E-1,1.1061102E-1,4.678222E-1,5.75116E-2,-3.4081575E-1,8.58992E-2,1.5721096E-1,1.6184339E-1,5.059714E-1,1.6167253E-1,-1.1661211E0,8.971888E-2,1.4210396E-1,4.3826598E-1,1.61767E-1,1.508341E-1,-2.9396687E-2,-8.358794E-2,5.583533E-1,-3.364552E-1,6.728778E-2,-2.6533917E-1,-4.2472374E-1,6.391578E-2,-4.103268E-2,1.6231859E-1,1.3232644E-1,-8.782512E-1,1.1868961E-1,1.2418296E-1,-2.3159557E-3,9.3707114E-2,1.5950836E-1,8.659402E-2,3.7469823E-2,3.5527106E-3,-4.65279E-2,2.3566186E-1,2.6430124E-2,3.7560467E-2,-1.3596001E-1,6.4504154E-2,8.182353E-3,-1.03625484E-1,-8.207105E-4,-2.0771705E-2,-1.5187362E-1],"categories":[],"categories_nodes":[],"categories_segments":[],"categories_sizes":[],"default_left":[0,0,0,0,0,0,0,0,0,0,0,0,0,0,0,0,0,0,0,0,0,0,0,0,0,0,0,0,0,0,0,0,0,0,0,0,0,0,0,0,0,0,0,0,0,0,0,0,0,0,0,0,0,0,0,0,0,0,0,0,0,0,0,0,0],"id":19,"left_children":[1,3,5,-1,7,9,11,13,15,-1,17,19,21,-1,23,25,27,29,31,33,35,37,39,41,-1,-1,43,-1,45,47,-1,49,-1,51,53,-1,55,57,59,61,63,-1,-1,-1,-1,-1,-1,-1,-1,-1,-1,-1,-1,-1,-1,-1,-1,-1,-1,-1,-1,-1,-1,-1,-1],"loss_changes":[4.6943848E1,1.1662598E0,1.9752954E2,0E0,6.4331055E0,5.3759766E-1,9.902423E0,2.6956363E0,1.9244385E-1,0E0,1.644989E0,1.5240412E0,2.053437E1,0E0,1.7828774E0,1.7324829E-1,1.4269106E1,7.504555E-1,3.2841492E-1,1.5365996E0,1.0090656E0,1.2531235E0,1.266264E0,1.8044248E0,0E0,0E0,1.1558685E0,0E0,1.5560982E1,5.546418E-1,0E0,8.400669E-1,0E0,7.199216E-1,3.2091773E-1,0E0,1.1697333E0,4.8265886E-1,1.8417974E0,2.4656248E0,2.904808E0,0E0,0E0,0E0,0E0,0E0,0E0,0E0,0E0,0E0,0E0,0E0,0E0,0E0,0E0,0E0,0E0,0E0,0E0,0E0,0E0,0E0,0E0,0E0,0E0],"parents":[2147483647,0,0,1,1,2,2,4,4,5,5,6,6,7,7,8,8,10,10,11,11,12,12,14,14,15,15,16,16,17,17,18,18,19,19,20,20,21,21,22,22,23,23,26,26,28,28,29,29,31,31,33,33,34,34,36,36,37,37,38,38,39,39,40,40],"right_children":[2,4,6,-1,8,10,12,14,16,-1,18,20,22,-1,24,26,28,30,32,34,36,38,40,42,-1,-1,44,-1,46,48,-1,50,-1,52,54,-1,56,58,60,62,64,-1,-1,-1,-1,-1,-1,-1,-1,-1,-1,-1,-1,-1,-1,-1,-1,-1,-1,-1,-1,-1,-1,-1,-1],"split_conditions":[4.902669E-1,3.185239E-1,3.444423E-1,1.6231248E-1,3.2581437E-1,1.760116E-1,5.3537214E-1,7.245453E-1,7.245453E-1,1.6257143E-1,2.0855418E-1,5.293791E-1,5.0804853E-1,1.5771091E-1,7.40376E-1,4.4177082E-1,3.6159876E-1,7.821208E-1,2.5475803E-1,5.1989836E-1,5.9016156E-1,6.0626185E-1,5.594131E-1,7.365532E-1,1.5721096E-1,1.6184339E-1,-3.543802E-1,1.6167253E-1,3.660712E-1,7.699452E-1,1.4210396E-1,7.6253587E-1,1.61767E-1,4.9874234E-1,5.260612E-1,-8.358794E-2,6.056243E-1,4.3652323E-1,6.506908E-1,5.4070556E-1,5.498308E-1,6.391578E-2,-4.103268E-2,1.6231859E-1,1.3232644E-1,-8.782512E-1,1.1868961E-1,1.2418296E-1,-2.3159557E-3,9.3707114E-2,1.5950836E-1,8.659402E-2,3.7469823E-2,3.5527106E-3,-4.65279E-2,2.3566186E-1,2.6430124E-2,3.7560467E-2,-1.3596001E-1,6.4504154E-2,8.182353E-3,-1.03625484E-1,-8.207105E-4,-2.0771705E-2,-1.5187362E-1],"split_indices":[0,0,1,0,0,1,0,1,1,0,1,0,1,0,1,0,0,0,1,0,1,0,1,1,0,0,1,0,0,0,0,0,0,0,0,0,1,1,0,1,0,0,0,0,0,0,0,0,0,0,0,0,0,0,0,0,0,0,0,0,0,0,0,0,0],"split_type":[0,0,0,0,0,0,0,0,0,0,0,0,0,0,0,0,0,0,0,0,0,0,0,0,0,0,0,0,0,0,0,0,0,0,0,0,0,0,0,0,0,0,0,0,0,0,0,0,0,0,0,0,0,0,0,0,0,0,0,0,0,0,0,0,0],"sum_hessian":[1.6785002E4,1.3246231E4,3.53877E3,1.1255917E4,1.9903143E3,2.7208496E3,8.179203E2,9.82742E1,1.8920402E3,2.4390933E3,2.8175638E2,2.8269864E2,5.352216E2,2.6503792E1,7.177042E1,1.7866705E3,1.0536961E2,2.3268324E1,2.5848804E2,2.7106866E2,1.1629978E1,3.1848273E2,2.1673894E2,6.170019E1,1.0070222E1,1.1751675E3,6.115029E2,1.0113385E2,4.235761E0,1.6455246E1,6.813078E0,8.453125E1,1.739568E2,2.1051274E2,6.0555916E1,1.0332143E0,1.0596764E1,6.9025707E0,3.1158014E2,1.1629344E2,1.00445496E2,3.930129E1,2.2398901E1,3.9210394E2,2.1939902E2,1.5796714E0,2.6560898E0,3.0519009E0,1.3403345E1,3.785682E1,4.667443E1,3.1737125E1,1.7877562E2,4.6278446E1,1.4277471E1,6.6928744E0,3.9038897E0,1.3785974E0,5.523973E0,6.547557E1,2.4610457E2,8.887597E1,2.741747E1,1.9082645E1,8.136285E1],"tree_param":{"num_deleted":"0","num_feature":"2","num_nodes":"65","size_leaf_vector":"1"}},{"base_weights":[-3.2135987E-1,-5.079867E-1,-2.5153762E-2,-1.5553278E-1,-4.6740532E-1,-5.0644284E-1,2.116298E-1,-1.5500778E-1,-4.4024402E-1,-5.106635E-1,-1.431677E-1,2.6388216E-1,1.2714997E-1,1.584354E0,-4.6804595E-1,-1.5536006E-1,-4.4441873E-1,-2.1347187E-1,-1.4441395E-2,3.710147E-1,1.06697276E-1,2.1033864E-1,6.456938E-2,7.211143E-1,2.3707935E-1,7.652634E-2,-4.8514327E-1,-1.6444531E-1,-4.7161445E-1,-2.151703E-2,-9.812921E-2,4.850603E-1,2.450611E-1,1.2880777E-1,-1.0448363E-1,8.325199E-3,4.663202E-1,-3.6686074E-3,2.554895E-1,-8.492967E-2,1.7533281E-1,-1.5180816E-1,-1.3733031E-1,-1.903592E-2,-1.0078643E-1,-1.1461918E-1,-1.5228796E-1,6.870317E-2,1.6189383E-1,-2.4691237E-2,1.2858358E-1,2.4022296E-2,1.531415E-1,3.1589817E-2,-1.5922275E-1,8.659116E-2,-3.475753E-2,1.2842388E-1,1.823842E-1,-3.4425966E-3,1.7670356E-1,1.21578865E-1,-2.1010635E-2],"categories":[],"categories_nodes":[],"categories_segments":[],"categories_sizes":[],"default_left":[0,0,0,0,0,0,0,0,0,0,0,0,0,0,0,0,0,0,0,0,0,0,0,0,0,0,0,0,0,0,0,0,0,0,0,0,0,0,0,0,0,0,0,0,0,0,0,0,0,0,0,0,0,0,0,0,0,0,0,0,0,0,0],"id":20,"left_children":[1,3,5,-1,7,9,11,-1,13,15,17,19,21,23,25,-1,27,29,-1,31,33,35,37,-1,-1,39,41,43,45,-1,-1,47,49,51,53,55,57,59,61,-1,-1,-1,-1,-1,-1,-1,-1,-1,-1,-1,-1,-1,-1,-1,-1,-1,-1,-1,-1,-1,-1,-1,-1],"loss_changes":[3.0727997E2,1.2047119E0,2.4508778E2,0E0,7.213898E-1,1.0141907E0,6.3297577E0,0E0,2.6843475E1,1.04156494E-1,5.3421065E-2,1.494294E1,2.8643608E0,2.3359165E0,4.3034286E0,0E0,4.993086E-1,6.0111538E-2,0E0,7.4755707E0,1.703856E0,1.2245932E1,4.129855E0,0E0,0E0,2.8709822E0,2.243042E-2,1.2146297E-1,2.7022362E-2,0E0,0E0,3.7401733E0,1.5252794E1,6.0628204E0,3.1734283E0,4.6777554E0,3.05542E-1,1.091595E0,4.097613E0,0E0,0E0,0E0,0E0,0E0,0E0,0E0,0E0,0E0,0E0,0E0,0E0,0E0,0E0,0E0,0E0,0E0,0E0,0E0,0E0,0E0,0E0,0E0,0E0],"parents":[2147483647,0,0,1,1,2,2,4,4,5,5,6,6,8,8,9,9,10,10,11,11,12,12,13,13,14,14,16,16,17,17,19,19,20,20,21,21,22,22,25,25,26,26,27,27,28,28,31,31,32,32,33,33,34,34,35,35,36,36,37,37,38,38],"right_children":[2,4,6,-1,8,10,12,-1,14,16,18,20,22,24,26,-1,28,30,-1,32,34,36,38,-1,-1,40,42,44,46,-1,-1,48,50,52,54,56,58,60,62,-1,-1,-1,-1,-1,-1,-1,-1,-1,-1,-1,-1,-1,-1,-1,-1,-1,-1,-1,-1,-1,-1,-1,-1],"split_conditions":[4.902669E-1,2.3116377E-1,3.732407E-1,-1.5553278E-1,1.3140644E-1,3.444423E-1,6.128071E-1,-1.5500778E-1,5.0804853E-1,1.760116E-1,7.1707267E-1,5.804999E-1,4.3652323E-1,3.732407E-1,6.1129874E-1,-1.5536006E-1,2.0855418E-1,7.118462E-1,-1.4441395E-2,5.7574004E-1,5.436073E-1,4.295599E-1,5.131966E-1,7.211143E-1,2.3707935E-1,4.714707E-1,7.245453E-1,7.821208E-1,2.5475803E-1,-2.151703E-2,-9.812921E-2,5.5610263E-1,5.929628E-1,5.3537214E-1,5.9016156E-1,6.7272013E-1,6.7758405E-1,6.840018E-1,5.177325E-1,-8.492967E-2,1.7533281E-1,-1.5180816E-1,-1.3733031E-1,-1.903592E-2,-1.0078643E-1,-1.1461918E-1,-1.5228796E-1,6.870317E-2,1.6189383E-1,-2.4691237E-2,1.2858358E-1,2.4022296E-2,1.531415E-1,3.1589817E-2,-1.5922275E-1,8.659116E-2,-3.475753E-2,1.2842388E-1,1.823842E-1,-3.4425966E-3,1.7670356E-1,1.21578865E-1,-2.1010635E-2],"split_indices":[0,0,1,0,1,1,0,0,1,1,0,1,1,1,1,0,1,0,0,0,0,1,1,0,0,0,1,0,1,0,0,0,0,0,1,0,0,0,1,0,0,0,0,0,0,0,0,0,0,0,0,0,0,0,0,0,0,0,0,0,0,0,0],"split_type":[0,0,0,0,0,0,0,0,0,0,0,0,0,0,0,0,0,0,0,0,0,0,0,0,0,0,0,0,0,0,0,0,0,0,0,0,0,0,0,0,0,0,0,0,0,0,0,0,0,0,0,0,0,0,0,0,0,0,0,0,0,0,0],"sum_hessian":[5.557842E3,3.4091602E3,2.1486814E3,2.7013708E3,7.0778925E2,7.081495E2,1.440532E3,2.4506615E2,4.6272308E2,6.9961536E2,8.534099E0,8.88719E2,5.51813E2,5.5096707E0,4.572134E2,6.248527E2,7.4762665E1,4.1888013E0,4.345297E0,5.276964E2,3.610226E2,2.3588667E2,3.1592633E2,1.7140589E0,3.7956119E0,1.3811858E1,4.4340155E2,7.2431316E0,6.751953E1,2.5895495E0,1.5992517E0,2.7544324E2,2.5225314E2,3.271593E2,3.38633E1,1.3241835E2,1.0346832E2,2.3346346E2,8.246288E1,8.345521E0,5.4663377E0,2.4160486E2,2.017967E2,5.4209867E0,1.8221452E0,2.2694601E1,4.4824932E1,4.931463E1,2.2612862E2,9.0822205E1,1.6143094E2,2.911882E2,3.5971104E1,2.3198929E1,1.0664369E1,4.0247005E1,9.217135E1,8.46379E1,1.8830421E1,2.3139616E2,2.0672836E0,5.6309875E1,2.6153011E1],"tree_param":{"num_deleted":"0","num_feature":"2","num_nodes":"63","size_leaf_vector":"1"}},{"base_weights":[4.9445954E-1,5.2517146E-1,3.8406363E-1,1.5943998E-1,5.0085276E-1,5.2441746E-1,-1.0440475E-2,1.5938343E-1,4.8412728E-1,1.5941906E-1,4.6348733E-1,1.254622E-1,-8.842091E-2,-9.764319E-1,4.913681E-1,1.9618931E-1,4.895574E-1,1.0914486E-1,3.665636E-1,5.3107135E-2,-3.1850126E-1,-1.402045E-1,5.0036776E-1,7.7893645E-2,1.3735045E-1,4.0397388E-1,1.5856566E-1,-8.1218235E-2,1.3213694E-1,-1.3061075E-1,5.238226E-1,7.30532E-2,-1.15307674E-1,-2.227205E-1,-4.3327677E-1,1.1337281E-1,-1.3482286E-1,1.527277E-1,1.16409235E-1,1.21442035E-1,-5.4001315E-3,7.587482E-2,1.5586203E-1,1.3436319E-1,-4.4486083E-2,4.72783E-2,5.7318034E-3,8.1094906E-2,-1.1661433E-1,2.0684595E-1,2.6164874E-2,1.0532034E-1,7.1348553E-3,-1.3482107E-1,-1.0328117E-2,7.0905164E-3,-9.4560005E-2,-1.554218E-1,-2.997172E-2],"categories":[],"categories_nodes":[],"categories_segments":[],"categories_sizes":[],"default_left":[0,0,0,0,0,0,0,0,0,0,0,0,0,0,0,0,0,0,0,0,0,0,0,0,0,0,0,0,0,0,0,0,0,0,0,0,0,0,0,0,0,0,0,0,0,0,0,0,0,0,0,0,0,0,0,0,0,0,0],"id":21,"left_children":[1,3,5,-1,7,9,11,-1,13,-1,15,17,19,-1,21,23,25,27,29,31,33,35,37,39,-1,41,-1,43,45,47,49,51,53,55,57,-1,-1,-1,-1,-1,-1,-1,-1,-1,-1,-1,-1,-1,-1,-1,-1,-1,-1,-1,-1,-1,-1,-1,-1],"loss_changes":[4.7424316E1,1.4157715E0,1.694961E2,0E0,9.013672E-1,7.138672E-1,8.534226E0,0E0,4.167569E1,0E0,1.575489E0,1.1151872E0,1.6676237E1,0E0,8.472931E0,6.7575043E-1,5.136299E-1,1.2206893E0,1.4905252E0,1.0753644E0,2.0470753E0,3.6223505E0,1.2312012E0,5.412672E-1,0E0,1.1332684E0,0E0,1.1455454E0,7.078252E-1,6.4019525E-1,9.537709E-1,3.8900006E0,9.0384316E-1,2.475916E0,2.4257374E0,0E0,0E0,0E0,0E0,0E0,0E0,0E0,0E0,0E0,0E0,0E0,0E0,0E0,0E0,0E0,0E0,0E0,0E0,0E0,0E0,0E0,0E0,0E0,0E0],"parents":[2147483647,0,0,1,1,2,2,4,4,5,5,6,6,8,8,10,10,11,11,12,12,14,14,15,15,16,16,17,17,18,18,19,19,20,20,21,21,22,22,23,23,25,25,27,27,28,28,29,29,30,30,31,31,32,32,33,33,34,34],"right_children":[2,4,6,-1,8,10,12,-1,14,-1,16,18,20,-1,22,24,26,28,30,32,34,36,38,40,-1,42,-1,44,46,48,50,52,54,56,58,-1,-1,-1,-1,-1,-1,-1,-1,-1,-1,-1,-1,-1,-1,-1,-1,-1,-1,-1,-1,-1,-1,-1,-1],"split_conditions":[4.902669E-1,2.3116377E-1,3.444423E-1,1.5943998E-1,1.3140644E-1,1.760116E-1,5.401165E-1,1.5938343E-1,2.4326174E-1,1.5941906E-1,2.0855418E-1,5.293791E-1,5.0804853E-1,-9.764319E-1,5.5280674E-1,7.821208E-1,2.5475803E-1,6.056243E-1,5.981794E-1,4.751882E-1,5.594131E-1,3.81877E-1,4.6351045E-1,7.699452E-1,1.3735045E-1,7.6253587E-1,1.5856566E-1,5.047319E-1,5.1989836E-1,5.804999E-1,6.056243E-1,6.506908E-1,6.1643165E-1,5.929628E-1,5.804999E-1,1.1337281E-1,-1.3482286E-1,1.527277E-1,1.16409235E-1,1.21442035E-1,-5.4001315E-3,7.587482E-2,1.5586203E-1,1.3436319E-1,-4.4486083E-2,4.72783E-2,5.7318034E-3,8.1094906E-2,-1.1661433E-1,2.0684595E-1,2.6164874E-2,1.0532034E-1,7.1348553E-3,-1.3482107E-1,-1.0328117E-2,7.0905164E-3,-9.4560005E-2,-1.554218E-1,-2.997172E-2],"split_indices":[0,0,1,0,1,1,0,0,1,0,1,0,1,0,1,0,1,1,1,1,1,0,0,0,0,0,0,0,0,1,1,0,0,0,1,0,0,0,0,0,0,0,0,0,0,0,0,0,0,0,0,0,0,0,0,0,0,0,0],"split_type":[0,0,0,0,0,0,0,0,0,0,0,0,0,0,0,0,0,0,0,0,0,0,0,0,0,0,0,0,0,0,0,0,0,0,0,0,0,0,0,0,0,0,0,0,0,0,0,0,0,0,0,0,0,0,0,0,0,0,0],"sum_hessian":[1.4046064E4,1.0986019E4,3.0600464E3,8.710388E3,2.2756313E3,2.2568066E3,8.0323975E2,7.9630725E2,1.4793241E3,2.0179363E3,2.3887027E2,2.9263416E2,5.106056E2,1.9924464E0,1.4773317E3,2.1984737E1,2.1688553E2,2.754452E2,1.718898E1,3.1661633E2,1.9398927E2,2.0550816E1,1.4567808E3,1.6033394E1,5.9513416E0,7.1444E1,1.4544153E2,2.9410265E1,2.4603491E2,4.1711974E0,1.3017782E1,2.835952E2,3.302113E1,1.0734762E2,8.664165E1,7.597688E0,1.2953128E1,1.3485178E3,1.0826296E2,2.9058044E0,1.312759E1,3.23489E1,3.9095097E1,2.6699016E0,2.6740364E1,2.0048618E2,4.5548737E1,1.6150818E0,2.5561156E0,9.0171585E0,4.0006237E0,4.177106E1,2.4182414E2,5.5478954E0,2.7473232E1,2.9501957E1,7.784566E1,6.8630775E1,1.8010876E1],"tree_param":{"num_deleted":"0","num_feature":"2","num_nodes":"59","size_leaf_vector":"1"}},{"base_weights":[-3.074303E-1,-5.02342E-1,-1.9906553E-2,-1.5394895E-1,-4.4188616E-1,-5.046504E-1,1.9076754E-1,-7.705555E-2,-4.623453E-1,-1.5407413E-1,-4.252647E-1,2.4022332E-1,1.1504588E-1,-1.3166225E-1,5.1507257E-2,-1.535482E-1,-4.231822E-1,-1.4418745E-1,-4.5556018E-1,3.4014916E-1,1.0916425E-1,1.9411682E-1,5.141285E-2,1.21833585E-1,-1.0724097E-1,4.1796997E-1,-4.8546067E-1,-1.5099679E-2,-9.538443E-2,-3.485321E-1,-1.5051918E-1,4.645483E-1,2.0951127E-1,1.2886432E-1,-8.9058146E-2,1.07779335E-2,4.423606E-1,-1.9107575E-3,2.1357276E-1,-5.115929E-3,8.721438E-2,2.6545656E-1,4.642002E-2,-1.4923742E-1,-1.1025768E-1,-5.524237E-2,-1.4127786E-1,5.7824053E-2,1.593921E-1,-2.8564919E-2,1.17741264E-1,2.5861477E-2,1.4653607E-1,-1.0365112E-1,6.624675E-2,8.1003554E-2,-2.986249E-2,1.20710455E-1,1.7771679E-1,-3.0029728E-3,1.7324598E-1,1.1033109E-1,-3.2907806E-2],"categories":[],"categories_nodes":[],"categories_segments":[],"categories_sizes":[],"default_left":[0,0,0,0,0,0,0,0,0,0,0,0,0,0,0,0,0,0,0,0,0,0,0,0,0,0,0,0,0,0,0,0,0,0,0,0,0,0,0,0,0,0,0,0,0,0,0,0,0,0,0,0,0,0,0,0,0,0,0,0,0,0,0],"id":22,"left_children":[1,3,5,-1,7,9,11,13,15,-1,17,19,21,-1,23,-1,25,27,29,31,33,35,37,39,-1,41,43,-1,-1,45,-1,47,49,51,53,55,57,59,61,-1,-1,-1,-1,-1,-1,-1,-1,-1,-1,-1,-1,-1,-1,-1,-1,-1,-1,-1,-1,-1,-1,-1,-1],"loss_changes":[2.7523926E2,1.6881714E0,2.0284798E2,0E0,3.335106E0,2.081604E-1,5.15765E0,1.1938808E0,6.1167145E-1,0E0,5.0194454E-1,1.0920002E1,2.7521653E0,0E0,6.0364383E-1,0E0,1.30037E1,1.13628775E-1,1.2019253E-1,7.609749E0,1.4306331E0,1.1119895E1,2.6423826E0,4.1218835E-1,0E0,1.9993784E0,1.3973236E-1,0E0,0E0,3.4125423E-1,0E0,4.290558E0,1.3035801E1,5.035026E0,2.734036E0,4.0769916E0,3.845024E-1,1.0894059E0,3.8096247E0,0E0,0E0,0E0,0E0,0E0,0E0,0E0,0E0,0E0,0E0,0E0,0E0,0E0,0E0,0E0,0E0,0E0,0E0,0E0,0E0,0E0,0E0,0E0,0E0],"parents":[2147483647,0,0,1,1,2,2,4,4,5,5,6,6,7,7,8,8,10,10,11,11,12,12,14,14,16,16,17,17,18,18,19,19,20,20,21,21,22,22,23,23,25,25,26,26,29,29,31,31,32,32,33,33,34,34,35,35,36,36,37,37,38,38],"right_children":[2,4,6,-1,8,10,12,14,16,-1,18,20,22,-1,24,-1,26,28,30,32,34,36,38,40,-1,42,44,-1,-1,46,-1,48,50,52,54,56,58,60,62,-1,-1,-1,-1,-1,-1,-1,-1,-1,-1,-1,-1,-1,-1,-1,-1,-1,-1,-1,-1,-1,-1,-1,-1],"split_conditions":[4.902669E-1,3.185239E-1,3.444423E-1,-1.5394895E-1,3.2581437E-1,1.760116E-1,6.128071E-1,7.245453E-1,1.3140644E-1,-1.5407413E-1,2.0855418E-1,5.804999E-1,4.3652323E-1,-1.3166225E-1,7.40376E-1,-1.535482E-1,6.1129874E-1,7.821208E-1,2.5475803E-1,5.7574004E-1,5.436073E-1,4.295599E-1,5.131966E-1,7.365532E-1,-1.0724097E-1,5.0804853E-1,7.245453E-1,-1.5099679E-2,-9.538443E-2,7.6253587E-1,-1.5051918E-1,5.5610263E-1,5.929628E-1,5.3537214E-1,5.498308E-1,6.7272013E-1,6.7758405E-1,6.840018E-1,5.177325E-1,-5.115929E-3,8.721438E-2,2.6545656E-1,4.642002E-2,-1.4923742E-1,-1.1025768E-1,-5.524237E-2,-1.4127786E-1,5.7824053E-2,1.593921E-1,-2.8564919E-2,1.17741264E-1,2.5861477E-2,1.4653607E-1,-1.0365112E-1,6.624675E-2,8.1003554E-2,-2.986249E-2,1.20710455E-1,1.7771679E-1,-3.0029728E-3,1.7324598E-1,1.1033109E-1,-3.2907806E-2],"split_indices":[0,0,1,0,0,1,0,1,1,0,1,1,1,0,1,0,1,0,1,0,0,1,1,1,0,1,1,0,0,0,0,0,0,0,0,0,0,0,1,0,0,0,0,0,0,0,0,0,0,0,0,0,0,0,0,0,0,0,0,0,0,0,0],"split_type":[0,0,0,0,0,0,0,0,0,0,0,0,0,0,0,0,0,0,0,0,0,0,0,0,0,0,0,0,0,0,0,0,0,0,0,0,0,0,0,0,0,0,0,0,0,0,0,0,0,0,0,0,0,0,0,0,0,0,0,0,0,0,0],"sum_hessian":[4.910504E3,2.9261355E3,1.9843683E3,2.475544E3,4.5059167E2,6.007337E2,1.3836345E3,2.4179834E1,4.2641183E2,5.350742E2,6.565949E1,8.3566656E2,5.479679E2,5.7064075E0,1.8473427E1,1.8305524E2,2.433566E2,6.948808E0,5.8710682E1,4.7324564E2,3.6242096E2,2.4342964E2,3.0453827E2,1.6361979E1,2.1114485E0,1.6382208E1,2.2697438E2,5.349169E0,1.5996398E0,2.027043E1,3.844025E1,2.4110185E2,2.321438E2,3.299766E2,3.244437E1,1.4061946E2,1.0281019E2,2.2992082E2,7.461745E1,9.471609E0,6.890369E0,5.055017E0,1.1327191E1,2.0309567E2,2.387871E1,9.719882E0,1.0550549E1,4.8307964E1,1.9279388E2,8.727043E1,1.4487335E2,2.9609006E2,3.388652E1,1.7689909E1,1.4754461E1,4.1545773E1,9.9073685E1,8.407946E1,1.873073E1,2.2772034E2,2.2004828E0,5.0426395E1,2.4191051E1],"tree_param":{"num_deleted":"0","num_feature":"2","num_nodes":"63","size_leaf_vector":"1"}},{"base_weights":[4.811645E-1,5.1625675E-1,3.6137703E-1,1.5695032E-1,4.7786182E-1,5.150072E-1,1.2186466E-3,1.18951686E-1,5.000357E-1,1.5707363E-1,4.4270855E-1,1.2572289E-1,-7.378121E-2,1.498408E-1,9.020344E-4,5.1207393E-1,4.547857E-1,3.2591212E-1,1.5601297E-1,1.08887E-1,3.7252852E-1,6.67209E-2,-2.616368E-1,-8.261178E-2,1.479248E-1,1.5484974E-1,4.5301673E-1,1.5639985E-1,3.187084E-1,1.7802489E-1,3.7219018E-1,1.3768198E-1,1.3896682E-3,-1.1965883E-1,5.0599116E-1,3.0556518E-1,2.0943549E-2,-1.6594492E-1,-4.1868713E-1,1.5173862E-2,-8.424977E-2,1.555506E-1,-2.4532275E-1,-1.3298371E-1,1.2231363E-1,2.0709459E-2,1.3288492E-1,5.933774E-2,1.5319051E-1,6.6181764E-2,2.6377032E-2,1.0868079E-2,-3.3264674E-2,7.2893694E-2,-1.1078099E-1,1.9717154E-1,2.609028E-2,-2.7403954E-2,1.04510196E-1,4.1599087E-2,-5.5717025E-3,-6.555489E-2,1.9588076E-2,-1.5409315E-1,-2.2659346E-2],"categories":[],"categories_nodes":[],"categories_segments":[],"categories_sizes":[],"default_left":[0,0,0,0,0,0,0,0,0,0,0,0,0,0,0,0,0,0,0,0,0,0,0,0,0,0,0,0,0,0,0,0,0,0,0,0,0,0,0,0,0,0,0,0,0,0,0,0,0,0,0,0,0,0,0,0,0,0,0,0,0,0,0,0,0],"id":23,"left_children":[1,3,5,-1,7,9,11,13,15,-1,17,19,21,-1,23,25,27,29,-1,31,33,35,37,39,-1,-1,41,-1,43,45,47,49,51,53,55,57,59,61,63,-1,-1,-1,-1,-1,-1,-1,-1,-1,-1,-1,-1,-1,-1,-1,-1,-1,-1,-1,-1,-1,-1,-1,-1,-1,-1],"loss_changes":[4.896753E1,2.14917E0,1.4678064E2,0E0,1.1008667E1,9.2059326E-1,7.425547E0,3.6935153E0,4.804077E-1,0E0,1.6692505E0,1.2015986E0,1.3116278E1,0E0,2.661719E0,1.4221191E-2,2.406643E0,5.070858E-1,0E0,8.704314E-1,1.287422E0,3.1066408E0,3.1249247E0,1.4760772E0,0E0,0E0,6.638687E0,0E0,6.6834526E0,6.013216E-1,1.4174519E0,8.95916E-1,2.4038945E-1,5.2357274E-1,8.8614607E-1,8.085394E-1,1.1190157E0,1.6400399E0,2.5621614E0,0E0,0E0,0E0,0E0,0E0,0E0,0E0,0E0,0E0,0E0,0E0,0E0,0E0,0E0,0E0,0E0,0E0,0E0,0E0,0E0,0E0,0E0,0E0,0E0,0E0,0E0],"parents":[2147483647,0,0,1,1,2,2,4,4,5,5,6,6,7,7,8,8,10,10,11,11,12,12,14,14,15,15,16,16,17,17,19,19,20,20,21,21,22,22,23,23,26,26,28,28,29,29,30,30,31,31,32,32,33,33,34,34,35,35,36,36,37,37,38,38],"right_children":[2,4,6,-1,8,10,12,14,16,-1,18,20,22,-1,24,26,28,30,-1,32,34,36,38,40,-1,-1,42,-1,44,46,48,50,52,54,56,58,60,62,64,-1,-1,-1,-1,-1,-1,-1,-1,-1,-1,-1,-1,-1,-1,-1,-1,-1,-1,-1,-1,-1,-1,-1,-1,-1,-1],"split_conditions":[4.902669E-1,3.185239E-1,3.444423E-1,1.5695032E-1,3.2581437E-1,1.760116E-1,5.401165E-1,7.245453E-1,4.6351045E-1,1.5707363E-1,2.5475803E-1,5.293791E-1,4.751882E-1,1.498408E-1,7.40376E-1,7.245453E-1,-3.543802E-1,2.0855418E-1,1.5601297E-1,5.1989836E-1,5.981794E-1,6.506908E-1,5.594131E-1,7.365532E-1,1.479248E-1,1.5484974E-1,3.6159876E-1,1.5639985E-1,6.1129874E-1,7.821208E-1,7.6253587E-1,6.198593E-1,5.260612E-1,5.804999E-1,6.056243E-1,4.295599E-1,3.957306E-1,5.4070556E-1,5.804999E-1,1.5173862E-2,-8.424977E-2,1.555506E-1,-2.4532275E-1,-1.3298371E-1,1.2231363E-1,2.0709459E-2,1.3288492E-1,5.933774E-2,1.5319051E-1,6.6181764E-2,2.6377032E-2,1.0868079E-2,-3.3264674E-2,7.2893694E-2,-1.1078099E-1,1.9717154E-1,2.609028E-2,-2.7403954E-2,1.04510196E-1,4.1599087E-2,-5.5717025E-3,-6.555489E-2,1.9588076E-2,-1.5409315E-1,-2.2659346E-2],"split_indices":[0,0,1,0,0,1,0,1,0,0,1,0,1,0,1,1,1,1,0,0,1,0,1,1,0,0,0,0,1,0,0,1,0,1,1,1,1,1,1,0,0,0,0,0,0,0,0,0,0,0,0,0,0,0,0,0,0,0,0,0,0,0,0,0,0],"split_type":[0,0,0,0,0,0,0,0,0,0,0,0,0,0,0,0,0,0,0,0,0,0,0,0,0,0,0,0,0,0,0,0,0,0,0,0,0,0,0,0,0,0,0,0,0,0,0,0,0,0,0,0,0,0,0,0,0,0,0,0,0,0,0,0,0],"sum_hessian":[1.1692314E4,9.040539E3,2.6517756E3,7.650796E3,1.3897429E3,1.8585552E3,7.932204E2,8.123437E1,1.3085085E3,1.6559836E3,2.0257152E2,2.979422E2,4.9527823E2,1.846946E1,6.2764908E1,1.0253969E3,2.831118E2,8.27742E1,1.1979732E2,2.8026508E2,1.7677143E1,2.8372083E2,2.115574E2,5.4371273E1,8.393634E0,9.517154E2,7.3681404E1,1.8822923E2,9.488253E1,2.0883913E1,6.189029E1,2.20831E2,5.943408E1,3.7929225E0,1.3884221E1,4.4719723E1,2.3900108E2,1.3273666E2,7.882074E1,3.2965477E1,2.1405796E1,7.063347E1,3.0479364E0,9.507292E0,8.5375244E1,1.5689591E1,5.194322E0,2.8463615E1,3.3426674E1,8.1528336E1,1.3930266E2,4.5876286E1,1.3557792E1,1.55719E0,2.2357326E0,9.784124E0,4.1000967E0,4.242656E0,4.0477066E1,5.9434196E1,1.795669E2,1.0819409E2,2.4542572E1,6.1347965E1,1.7472775E1],"tree_param":{"num_deleted":"0","num_feature":"2","num_nodes":"65","size_leaf_vector":"1"}},{"base_weights":[-2.9193786E-1,-4.9639335E-1,-1.445304E-2,-1.528421E-1,-4.2487746E-1,-4.9939552E-1,1.7301428E-1,-8.126252E-2,-4.464194E-1,-1.53054E-1,-4.069677E-1,2.1955185E-1,1.03583016E-1,-1.277712E-1,2.7636424E-2,-1.5244074E-1,-3.988082E-1,-2.7449352E-1,-1.4891689E-1,1.0002925E-1,3.0671862E-1,1.8440016E-1,3.766142E-2,1.2613302E-1,-5.0642148E-2,7.2817904E-1,-4.5623317E-1,-1.2411654E-1,-3.2012323E-1,4.360817E-1,7.725524E-2,4.191907E-1,1.8119071E-1,1.4440154E-2,4.1616905E-1,-6.797894E-3,1.8107186E-1,1.9185048E-3,-1.0160585E-1,4.153607E-2,2.459411E-1,5.686508E-3,-1.41983E-1,-1.0965242E-2,-9.005065E-2,-4.4795223E-2,-1.3837779E-1,-1.9493328E-2,1.8654993E-1,-3.6218184E-1,2.9127045E-2,1.4596324E-1,5.1297992E-2,1.0219572E-1,-4.7386277E-2,7.113472E-2,-2.4994398E-2,1.7007932E-1,1.1080656E-1,-4.527154E-3,1.6778257E-1,1.0014757E-1,-3.8298793E-2],"categories":[],"categories_nodes":[],"categories_segments":[],"categories_sizes":[],"default_left":[0,0,0,0,0,0,0,0,0,0,0,0,0,0,0,0,0,0,0,0,0,0,0,0,0,0,0,0,0,0,0,0,0,0,0,0,0,0,0,0,0,0,0,0,0,0,0,0,0,0,0,0,0,0,0,0,0,0,0,0,0,0,0],"id":24,"left_children":[1,3,5,-1,7,9,11,13,15,-1,17,19,21,-1,23,-1,25,27,-1,29,31,33,35,-1,37,39,41,43,45,47,49,51,53,55,57,59,61,-1,-1,-1,-1,-1,-1,-1,-1,-1,-1,-1,-1,-1,-1,-1,-1,-1,-1,-1,-1,-1,-1,-1,-1,-1,-1],"loss_changes":[2.4634647E2,2.1222534E0,1.6765208E2,0E0,2.8697586E0,3.0485535E-1,4.274872E0,9.268936E-1,8.8222504E-1,0E0,5.586853E-1,8.256283E0,2.846696E0,0E0,6.1988753E-1,0E0,1.4121555E1,1.3783419E-1,0E0,2.5449505E0,6.411194E0,9.46267E0,1.890163E0,0E0,2.835194E-1,4.6550035E-1,1.6559105E0,1.0707879E-1,3.9447343E-1,2.0106769E0,8.187891E0,3.95533E0,1.1892044E1,3.0610082E0,5.0808907E-1,1.0745642E0,3.350718E0,0E0,0E0,0E0,0E0,0E0,0E0,0E0,0E0,0E0,0E0,0E0,0E0,0E0,0E0,0E0,0E0,0E0,0E0,0E0,0E0,0E0,0E0,0E0,0E0,0E0,0E0],"parents":[2147483647,0,0,1,1,2,2,4,4,5,5,6,6,7,7,8,8,10,10,11,11,12,12,14,14,16,16,17,17,19,19,20,20,21,21,22,22,24,24,25,25,26,26,27,27,28,28,29,29,30,30,31,31,32,32,33,33,34,34,35,35,36,36],"right_children":[2,4,6,-1,8,10,12,14,16,-1,18,20,22,-1,24,-1,26,28,-1,30,32,34,36,-1,38,40,42,44,46,48,50,52,54,56,58,60,62,-1,-1,-1,-1,-1,-1,-1,-1,-1,-1,-1,-1,-1,-1,-1,-1,-1,-1,-1,-1,-1,-1,-1,-1,-1,-1],"split_conditions":[4.902669E-1,3.185239E-1,3.444423E-1,-1.528421E-1,3.2581437E-1,1.760116E-1,6.128071E-1,7.245453E-1,1.3140644E-1,-1.53054E-1,2.5475803E-1,5.401165E-1,4.3652323E-1,-1.277712E-1,7.3134905E-1,-1.5244074E-1,5.5280674E-1,2.0855418E-1,-1.4891689E-1,5.724934E-1,5.7574004E-1,4.295599E-1,5.131966E-1,1.2613302E-1,7.40376E-1,3.81877E-1,6.1129874E-1,7.821208E-1,7.6253587E-1,5.1360923E-1,5.804999E-1,5.804999E-1,5.4070556E-1,6.7272013E-1,6.7272013E-1,6.840018E-1,5.177325E-1,1.9185048E-3,-1.0160585E-1,4.153607E-2,2.459411E-1,5.686508E-3,-1.41983E-1,-1.0965242E-2,-9.005065E-2,-4.4795223E-2,-1.3837779E-1,-1.9493328E-2,1.8654993E-1,-3.6218184E-1,2.9127045E-2,1.4596324E-1,5.1297992E-2,1.0219572E-1,-4.7386277E-2,7.113472E-2,-2.4994398E-2,1.7007932E-1,1.1080656E-1,-4.527154E-3,1.6778257E-1,1.0014757E-1,-3.8298793E-2],"split_indices":[0,0,1,0,0,1,0,1,1,0,1,0,1,0,1,0,1,1,0,1,0,1,1,0,1,0,1,0,0,0,1,1,1,0,0,0,1,0,0,0,0,0,0,0,0,0,0,0,0,0,0,0,0,0,0,0,0,0,0,0,0,0,0],"split_type":[0,0,0,0,0,0,0,0,0,0,0,0,0,0,0,0,0,0,0,0,0,0,0,0,0,0,0,0,0,0,0,0,0,0,0,0,0,0,0,0,0,0,0,0,0,0,0,0,0,0,0,0,0,0,0,0,0,0,0,0,0,0,0],"sum_hessian":[4.341311E3,2.4991245E3,1.8421864E3,2.1075308E3,3.9159375E2,5.131362E2,1.3290502E3,2.338307E1,3.6821066E2,4.5547202E2,5.7664207E1,7.944162E2,5.34634E2,4.915519E0,1.846755E1,1.5614014E2,2.1207054E2,2.4878126E1,3.278608E1,3.3593353E2,4.5848264E2,2.3937407E2,2.952599E2,2.3423529E0,1.6125198E1,9.715695E0,2.0235484E2,6.657568E0,1.8220558E1,2.0169212E1,3.1576434E2,2.405828E2,2.1789986E2,1.3871461E2,1.0065945E2,2.261139E2,6.914599E1,1.4276106E1,1.8490913E0,1.6441988E0,8.071497E0,7.0026402E0,1.953522E2,5.252612E0,1.404956E0,9.174886E0,9.045672E0,5.6307106E0,1.4538501E1,3.8913388E0,3.11873E2,1.8847577E2,5.2107025E1,1.4820929E2,6.969057E1,4.1883232E1,9.683138E1,2.1217865E1,7.944158E1,2.238086E2,2.3053145E0,4.6204166E1,2.294182E1],"tree_param":{"num_deleted":"0","num_feature":"2","num_nodes":"63","size_leaf_vector":"1"}},{"base_weights":[4.6852574E-1,5.090161E-1,3.38562E-1,1.5513177E-1,4.6507055E-1,5.070419E-1,1.1758401E-2,1.1770703E-1,4.898218E-1,1.5531194E-1,4.2095485E-1,1.2527317E-1,-5.997998E-2,1.4670625E-1,1.886042E-2,1.5099308E-1,4.3880785E-1,2.9362366E-1,1.5399268E-1,1.0824781E-1,3.7230584E-1,-2.9027176E-1,3.510054E-2,-4.5225993E-1,9.3966946E-2,4.7832042E-1,1.428948E-1,1.5551431E-1,3.4070307E-1,2.5161287E-1,